# net.0.weight — shape (20, 2)
[
    [24.481745, 24.481804],
    [26.112179, 26.112043],
    [-7.224090, -7.224089],
    [-24.672197, -24.672213],
    [20.177332, 20.177332],
    [23.803804, 23.803762],
    [-21.296751, -21.296749],
    [25.904097, 25.903624],
    [-16.654455, -16.654457],
    [-19.820848, -19.820848],
    [12.995778, 12.995779],
    [-13.375466, -13.375467],
    [22.017664, 22.017855],
    [-20.071573, -20.071566],
    [6.638494, 6.638494],
    [-20.328382, -20.328386],
    [21.081024, 21.081081],
    [21.714535, 21.714525],
    [27.484671, 27.484951],
    [15.889126, 15.889124],
]

# net.0.bias — shape (20,)
[0.460741, -2.722335, 11.642613, -3.606344, -18.423212, 6.578146, 16.215405, -8.789465, -17.572977, -17.484165, -16.953424, -16.906843, -10.372586, -11.433801, 10.493804, -14.739331, 8.781884, -13.344088, -6.092058, -17.288416]

# net.2.weight — shape (401, 20)
[
    [-13.894565, -0.863892, 3.041729, 10.510362, 0.342206, -5.544495, -0.115228, -0.428350, 3.998617, 3.640255, 0.313203, 8.001092, 0.210235, 2.661325, -127.979729, 2.386451, -2.560230, 0.237699, -1.124950, 0.115890],
    [-3.657898, -0.217986, 1.013016, 3.681380, 1.645591, -1.949163, -1.545663, 0.948871, 3.134104, 1.811981, 1.993963, 8.638616, 1.759503, 1.094057, -173.284546, 1.164862, -1.059340, 1.741982, 0.173662, 1.692844],
    [-2.233935, 0.903167, 0.872011, 2.276320, 2.313035, -2.793067, -1.836087, 1.544074, 3.615246, 1.958964, 2.202071, 8.987266, 1.887068, 1.159151, -179.274246, 1.005660, -1.041250, 1.790951, 0.850664, 1.953503],
    [-3.042658, 0.289676, 0.971732, 2.164043, 1.792902, -2.102839, -1.911486, 1.097146, 3.635810, 1.529313, 2.177608, 9.120754, 1.989278, 0.984389, -177.983704, 0.994768, -0.849821, 1.671741, 0.499170, 1.866240],
    [-2.013533, -0.603890, 1.425852, 2.600484, 2.024700, -1.485559, -1.953653, 0.542108, 4.385730, 2.164020, 2.308236, 7.899875, 1.729674, 1.029005, -176.147430, 0.890970, -0.724196, 1.415337, -0.298255, 1.727789],
    [-2.817731, 0.365841, 1.237480, 2.629043, 1.535405, -2.322785, -1.525938, 0.763219, 4.418118, 2.252178, 1.827482, 9.084537, 1.595366, 1.218372, -172.729965, 1.080030, -1.202486, 1.581573, 0.106418, 1.443398],
    [-1.678497, -0.049013, 1.856509, 1.262720, 1.509434, -1.908654, -1.394655, 0.309081, 4.850944, 1.981569, 1.856923, 8.314116, 1.227514, 1.699452, -172.275681, 1.754264, -1.417921, 1.094417, 0.068958, 1.209221],
    [-2.049951, -0.435775, 1.990277, 1.985170, 1.343030, -1.731543, -1.273571, 0.306877, 5.095241, 2.401589, 1.437818, 8.650978, 0.761168, 1.741470, -167.817230, 1.749559, -1.540119, 0.896517, -0.173595, 1.033361],
    [-2.246888, -0.653093, 2.013903, 1.401556, 0.733967, -2.219882, -0.572056, -0.147044, 4.715434, 2.282590, 1.238391, 8.749512, 0.540973, 2.241838, -163.516113, 2.192317, -1.703913, 0.592913, -0.335413, 0.804695],
    [-2.610571, -0.830082, 2.278009, 2.105223, 0.814655, -2.542998, -0.460646, -0.014798, 5.648592, 2.917441, 0.754574, 8.952497, 0.664678, 2.139699, -158.537796, 2.399090, -1.858752, 0.537486, -0.545365, 0.482020],
    [-3.440750, -1.078860, 2.244399, 2.507103, 0.498403, -2.799484, -0.335720, -0.439690, 5.093776, 2.904887, 1.084115, 10.083532, 0.166712, 2.367957, -153.530716, 2.274093, -2.105921, 0.375287, -0.917204, 0.298997],
    [-2.788963, -1.281235, 2.621538, 2.338688, 0.106073, -2.927507, -0.015622, -0.664040, 5.753419, 3.201600, 0.567932, 9.604321, -0.069811, 2.717745, -148.917892, 2.810537, -2.467867, -0.097618, -1.239365, -0.106733],
    [-2.374264, -1.364304, 3.565677, 2.371189, 0.033487, -2.907121, 0.296387, -1.065653, 6.636023, 3.396266, -0.036413, 10.473845, -0.428582, 3.124655, -142.987534, 3.237521, -2.673599, -0.325382, -1.371091, -0.075946],
    [-2.864856, -1.941541, 3.741021, 2.269401, -0.305143, -3.196009, 0.510531, -1.246960, 6.487961, 3.527107, -0.327136, 10.761232, -0.476997, 3.318627, -138.014526, 3.617777, -2.961392, -0.521458, -1.235598, -0.617449],
    [-3.678725, -1.951470, 3.633903, 3.484804, -0.106649, -3.421718, 0.490585, -1.178439, 6.806294, 3.926885, -0.358765, 10.378198, -0.789650, 3.366260, -134.498535, 3.233232, -3.112143, -0.548922, -1.859863, -0.745143],
    [-3.282807, -2.182711, 4.151525, 3.233325, -0.503351, -3.435357, 1.011404, -1.643002, 7.083636, 4.083140, -0.656361, 11.431247, -0.956351, 3.410101, -129.958420, 3.823102, -3.013032, -0.854241, -1.644799, -0.882728],
    [-3.093403, -2.280128, 4.614877, 3.174111, -0.806021, -3.657682, 1.601204, -1.787464, 7.076052, 3.913998, -1.198153, 10.988847, -1.076570, 3.909069, -125.550339, 4.306365, -3.520517, -1.216253, -1.991139, -0.915809],
    [-3.660620, -2.602401, 4.514515, 3.980511, -0.917903, -3.770238, 1.055760, -2.031255, 8.091008, 4.764870, -0.801524, 12.017466, -1.089461, 3.726542, -121.295761, 3.877742, -3.483167, -1.264185, -2.488200, -1.263219],
    [-3.858121, -2.725266, 4.698439, 3.665905, -1.318488, -4.048151, 1.603785, -2.117229, 7.637693, 4.581023, -1.374468, 11.931652, -1.788586, 4.168050, -117.079483, 4.340224, -3.826563, -1.511140, -2.447222, -1.278269],
    [-4.084605, -2.659394, 4.920045, 3.674317, -1.677619, -4.026310, 2.040673, -2.536746, 7.957015, 4.722992, -1.527933, 11.936833, -1.817547, 4.645624, -112.992691, 4.916398, -3.843091, -1.760469, -2.594293, -1.398328],
    [-4.630115, -3.165659, 4.770490, 3.923891, -1.701820, -4.769734, 1.711506, -2.393957, 7.777223, 5.178959, -1.660023, 11.944327, -2.088888, 4.286346, -108.978661, 4.668680, -4.250385, -1.998953, -3.000778, -1.754586],
    [-3.766757, -3.450254, 5.999208, 3.879020, -1.816859, -4.333524, 1.990566, -2.788975, 8.471789, 5.237700, -2.134414, 12.490451, -1.975860, 5.031651, -105.008919, 5.033474, -4.242423, -1.771112, -3.147732, -1.977265],
    [-4.245975, -3.575719, 5.713359, 4.036137, -2.316213, -4.594728, 2.519048, -3.057237, 8.085344, 4.952981, -2.305251, 12.557436, -2.265015, 4.911248, -101.102455, 5.040918, -4.557396, -2.431582, -3.438334, -2.184606],
    [-4.827193, -3.297041, 5.473381, 4.116599, -2.205958, -5.146165, 2.664067, -3.039059, 8.063157, 5.374960, -2.424222, 12.567957, -2.647536, 5.243541, -97.233017, 5.272285, -4.830104, -2.629219, -3.341211, -2.234799],
    [-4.634912, -3.766917, 5.900940, 4.359091, -2.282141, -4.974287, 2.759117, -3.426504, 8.414740, 5.410403, -2.626771, 12.946128, -2.848648, 5.467533, -93.404427, 5.753995, -4.672921, -2.544331, -3.321451, -2.454745],
    [-4.957801, -4.255743, 6.228481, 4.497994, -2.737219, -4.959372, 3.038800, -3.417146, 8.374941, 5.474503, -2.815651, 13.167160, -2.890810, 5.274002, -89.605644, 5.753171, -4.884696, -2.858732, -3.531245, -2.711350],
    [-4.956392, -4.421642, 6.296530, 4.740213, -2.718045, -5.144109, 3.373693, -3.773228, 8.613012, 5.736582, -3.178535, 13.224195, -3.193070, 5.493510, -85.828026, 5.913941, -4.760198, -2.744241, -3.794829, -2.871089],
    [-5.340287, -4.066291, 5.926756, 5.074323, -2.889990, -5.733951, 3.042116, -3.830210, 9.014459, 6.013364, -3.013531, 13.521299, -3.160893, 5.581025, -82.062607, 5.791259, -5.373395, -3.162664, -4.192019, -2.959790],
    [-4.910515, -4.162739, 6.967031, 4.719161, -3.085001, -5.576602, 3.634666, -4.056255, 8.770148, 6.077560, -3.463034, 13.775540, -3.000659, 6.129109, -78.297310, 6.197459, -5.280023, -3.116681, -4.340763, -3.152814],
    [-5.085051, -4.361467, 7.093748, 5.063097, -3.361485, -5.647497, 3.635153, -4.242081, 8.801063, 6.348211, -3.744808, 13.987100, -3.047364, 6.114706, -74.537346, 6.385253, -5.196990, -3.397648, -4.414349, -2.952557],
    [-5.297377, -4.458546, 6.995670, 5.162682, -3.249403, -5.888649, 3.674176, -4.184633, 9.234121, 6.459807, -3.439219, 14.472184, -3.150984, 6.296422, -70.793137, 6.670110, -5.525403, -3.422877, -4.435356, -3.207437],
    [-5.664219, -4.904388, 6.741973, 5.664117, -3.297517, -5.939265, 3.840917, -4.692236, 9.368404, 6.634683, -3.753017, 14.014489, -3.515168, 5.932568, -67.011940, 6.150414, -5.491202, -3.581510, -4.669006, -3.378316],
    [-5.444927, -4.611602, 7.402322, 5.415404, -3.430150, -5.959956, 4.191214, -4.558688, 9.042024, 6.537173, -4.022445, 14.422789, -3.642774, 6.469745, -63.217087, 6.762825, -5.948195, -3.576815, -4.457513, -3.664509],
    [-5.357635, -4.366735, 7.190886, 5.488227, -3.791649, -6.202557, 4.197978, -4.744304, 9.172219, 7.297117, -4.468720, 14.717216, -3.351128, 6.827672, -59.404202, 7.103009, -6.199576, -3.508215, -5.096421, -3.277503],
    [-5.832638, -5.096156, 7.399393, 5.125954, -3.917788, -6.139936, 4.065660, -4.716496, 9.193485, 6.561100, -3.887872, 15.316417, -3.756610, 6.620045, -55.566074, 7.122644, -5.971261, -4.061347, -4.861698, -3.872255],
    [-5.517751, -4.941876, 7.686734, 5.714234, -3.541540, -6.380431, 4.274205, -4.952353, 9.423294, 6.798479, -4.043869, 15.532506, -3.606561, 6.866226, -51.691063, 6.981057, -6.168886, -4.017237, -5.074936, -3.780299],
    [-5.994268, -5.384466, 7.608104, 5.893626, -4.125689, -6.433998, 4.254382, -4.916438, 9.244037, 6.616834, -4.538271, 15.428630, -3.964545, 6.777450, -47.757614, 7.130733, -5.959940, -4.129398, -4.758292, -3.708222],
    [-5.513717, -5.085028, 7.499321, 5.558915, -4.295486, -6.401936, 4.598769, -5.282178, 8.801399, 6.989148, -4.716139, 15.594607, -4.108430, 6.857781, -43.771309, 6.994279, -6.419300, -4.243692, -5.522894, -3.807305],
    [-5.512050, -5.013229, 7.121144, 5.697715, -4.040881, -6.477240, 4.627894, -5.236357, 9.078058, 7.492987, -4.671965, 16.969770, -3.830325, 7.281797, -39.756275, 7.239336, -6.204596, -4.117495, -5.557806, -3.841905],
    [-5.468112, -5.059923, 7.583284, 5.623653, -4.245044, -6.490339, 4.866334, -5.508362, 8.913545, 6.944202, -4.781446, 16.323179, -4.119928, 7.208754, -35.654854, 7.146276, -6.085846, -4.059531, -5.598018, -4.212172],
    [-5.196383, -5.046170, 7.387591, 5.726726, -4.790618, -6.107132, 5.099370, -5.278274, 8.451533, 8.305414, -4.975347, 16.526133, -4.031832, 7.373941, -31.496956, 7.307130, -6.546046, -4.115942, -5.798212, -3.841707],
    [-5.546875, -5.265201, 7.610958, 5.608933, -4.276972, -6.515149, 4.481125, -5.358488, 8.889727, 6.949784, -4.793856, 17.556561, -4.110571, 7.284734, -27.269157, 7.238799, -6.231553, -4.281904, -5.529900, -3.874275],
    [-5.471002, -5.171851, 7.624071, 5.813781, -4.273541, -6.428563, 4.501640, -5.472465, 8.792222, 7.052717, -4.536175, 18.650789, -3.911694, 6.902986, -22.973852, 7.239982, -6.092886, -4.131351, -5.503469, -4.045630],
    [-5.749964, -5.179668, 7.440529, 5.570576, -4.307297, -6.274350, 4.827389, -5.441340, 8.563616, 6.712367, -4.672815, 19.181145, -4.180720, 7.026416, -18.598030, 6.982934, -6.042397, -4.078161, -5.041184, -4.235949],
    [-5.765729, -5.421298, 6.898154, 5.769457, -4.126643, -6.217952, 4.513438, -4.985653, 8.805438, 6.579551, -4.215526, 20.432716, -4.126545, 6.881041, -14.148491, 7.229758, -6.006763, -4.139007, -4.797365, -4.088704],
    [-5.719559, -5.006595, 6.739170, 5.789948, -3.851618, -6.326886, 4.265181, -4.551371, 8.733162, 6.617985, -4.313903, 22.737080, -3.813908, 6.653259, -9.612355, 6.942711, -5.810298, -3.880243, -4.874559, -3.951448],
    [-5.589015, -4.745836, 6.444409, 5.296482, -3.924258, -6.003505, 4.220123, -4.622921, 8.305643, 6.355639, -4.260234, 23.048250, -4.061525, 6.774181, -5.030227, 6.881945, -5.789544, -4.085518, -4.810396, -4.027646],
    [-5.061241, -4.528003, 5.615481, 5.329212, -3.640881, -5.639848, 4.002037, -4.730684, 8.129016, 6.502958, -3.987407, 27.503716, -3.488523, 6.496395, -0.323449, 6.849020, -5.552479, -3.470366, -4.892933, -3.348035],
    [-4.630872, -4.212016, 5.770967, 4.817492, -3.011305, -5.428041, 3.869361, -4.230454, 7.824966, 6.537620, -3.678775, 31.075247, -3.192156, 6.425134, 4.445879, 6.464675, -5.118438, -3.013739, -4.556915, -3.168767],
    [-4.558009, -4.202475, 5.211793, 4.675182, -2.756591, -5.381147, 3.397187, -4.149629, 7.402662, 5.387782, -3.054648, 35.252369, -3.181781, 5.820985, 9.360179, 6.124976, -4.913812, -3.261420, -4.029473, -2.779565],
    [-3.605214, -3.191304, 4.999084, 4.537666, -2.976438, -4.602986, 3.751655, -3.532300, 6.853820, 6.352123, -3.541703, 36.874161, -2.609197, 5.843773, 14.257446, 5.833146, -4.973434, -2.751289, -4.200016, -2.951157],
    [-3.758265, -3.155442, 3.847251, 3.841010, -2.150750, -4.302913, 2.817484, -3.157935, 6.406548, 4.991382, -2.586611, 45.921906, -2.325659, 5.160105, 19.549498, 5.342240, -4.145915, -2.031295, -3.577242, -1.897629],
    [-2.887646, -2.340217, 3.805800, 3.415357, -2.072747, -3.573404, 2.653108, -2.741566, 5.566446, 5.321409, -2.522816, 51.283951, -1.791395, 4.686468, 24.798376, 4.528884, -3.648327, -2.170848, -3.099033, -1.323453],
    [-2.230113, -1.749146, 2.779091, 2.606823, -1.057251, -2.874872, 1.650286, -1.655140, 5.147586, 4.683713, -1.387684, 62.124252, -0.944544, 4.269484, 30.791533, 4.028548, -3.348210, -1.036827, -2.370356, -1.086667],
    [-2.322647, -1.807772, 1.758220, 1.901217, -0.233418, -2.830456, 0.602124, -1.254969, 4.534943, 2.609992, -0.494811, 70.353325, -0.674072, 3.167388, 36.923874, 3.175011, -2.342215, -0.530170, -1.179336, -0.564266],
    [-1.163485, -1.024897, 1.295492, 1.334587, 0.360674, -1.740147, 0.114223, -0.775559, 3.906285, 2.522973, 0.013454, 77.576103, 0.175445, 3.005576, 43.404556, 2.680742, -2.000905, 0.062801, -1.110542, 0.361353],
    [-0.666068, -0.155569, 0.964544, 0.830636, 0.791233, -1.631198, -0.304316, -0.300025, 3.777618, 2.656808, 0.674559, 80.811943, 0.771561, 2.716422, 49.702202, 2.699442, -1.592644, 0.687817, -0.691395, 0.816788],
    [0.178603, 0.541427, -0.470039, 0.721592, 2.351115, -0.729058, -1.395483, 0.624786, 3.451384, 1.815860, 2.101066, 92.273346, 2.286830, 2.133005, 59.116375, 2.699093, -1.252953, 2.092185, -0.098946, 2.501509],
    [0.768614, 1.074855, -1.244594, -0.677072, 1.863777, 0.026757, -1.268460, 0.856706, 1.627473, 0.325568, 1.773640, 96.041420, 1.820313, 1.018483, 67.589890, 0.812954, 0.212343, 1.954446, 0.825122, 1.925489],
    [0.812722, 1.161267, -1.874561, -0.637133, 2.457243, 0.212501, -2.450605, 1.579930, 1.472114, -0.469763, 2.705125, 97.916290, 2.163860, 0.277703, 76.227966, 0.268778, 0.297799, 2.206903, 1.618261, 2.505995],
    [1.572152, 1.831520, -1.712312, -1.207094, 2.542981, 0.819756, -2.208966, 1.851751, 0.992590, 0.709818, 2.844361, 96.182137, 2.808331, 0.344572, 83.835938, 0.308743, 0.537335, 2.322929, 1.524918, 3.042281],
    [0.840424, 1.612379, -1.939379, -1.222077, 2.943244, 0.757672, -2.656976, 2.170799, 1.095619, -0.526507, 2.959668, 92.049171, 2.340027, -0.229023, 90.256210, 0.234549, 0.949096, 2.497701, 1.823716, 2.649160],
    [0.622617, 1.332062, -2.020761, -0.821739, 2.393954, 0.582433, -2.239644, 1.812997, 1.116818, -0.754370, 2.573025, 84.503197, 2.200453, 0.071889, 92.962685, 0.021902, 0.597421, 2.114346, 1.699619, 2.184197],
    [1.513656, 1.704519, -1.229905, -0.919852, 2.325011, 0.585460, -1.984488, 1.672796, 1.420748, 0.961867, 2.202820, 78.117577, 2.256540, 0.530687, 96.789864, 0.405089, 0.327272, 2.308581, 1.106279, 2.277446],
    [0.088327, 0.543999, -1.429054, -0.257837, 1.913591, 0.077216, -1.686410, 1.256943, 1.906471, 0.088201, 2.074838, 69.268311, 1.757260, 0.728794, 95.600952, 0.722957, 0.118681, 1.594619, 0.932899, 1.716127],
    [0.163923, 0.386381, -0.581108, 0.176608, 0.918221, -0.267062, -0.489216, 0.499955, 2.494733, 1.993799, 1.171039, 59.811832, 1.164684, 1.411749, 91.000732, 1.241648, -0.302865, 0.885165, -0.006450, 1.548225],
    [-0.718241, -0.079931, 0.362561, 1.116040, 0.171072, -1.314914, 0.181344, -0.268115, 3.799289, 2.857148, -0.089846, 50.316624, 0.520145, 2.557307, 82.693733, 2.253587, -1.294324, 0.527435, -0.523151, 0.917539],
    [-1.982505, -1.527424, 1.765150, 2.349657, -0.815065, -2.403680, 1.192073, -1.465397, 5.242095, 4.073416, -1.137956, 39.833981, -0.979297, 3.465789, 65.282021, 3.480693, -2.584544, -0.680321, -1.639569, -0.649339],
    [-2.385708, -1.978490, 2.323872, 3.155580, -0.827884, -3.213184, 1.480308, -2.244168, 6.902991, 5.013610, -0.883181, 32.599773, -0.935185, 4.425361, 58.259632, 4.546025, -3.316320, -1.373756, -2.471906, -0.689814],
    [-3.677551, -2.968750, 3.007946, 3.623639, -1.989516, -4.006168, 2.729666, -3.285020, 7.578385, 4.789099, -2.513600, 24.833717, -2.360289, 4.823204, 45.375946, 4.948627, -3.910331, -2.120587, -3.032999, -1.881879],
    [-4.021363, -3.555494, 3.643201, 4.441557, -2.277438, -4.970883, 3.295646, -3.336066, 9.482337, 6.314318, -2.487375, 17.638372, -2.529406, 5.974710, 35.862644, 6.256947, -5.069545, -2.719366, -3.927548, -2.394141],
    [-4.467379, -3.977430, 4.557905, 4.637012, -3.249383, -4.940548, 3.469671, -4.400963, 10.631685, 5.897683, -3.283968, 10.732067, -3.760372, 5.899056, 28.204954, 5.958752, -5.094529, -3.221308, -4.383526, -3.148428],
    [-4.853933, -4.321837, 4.308711, 5.012791, -3.552829, -5.145880, 3.811990, -4.598393, 12.431830, 6.495060, -3.951622, 3.897151, -3.978021, 6.677420, 22.272049, 6.481373, -5.316538, -3.311925, -4.687910, -3.316637],
    [-4.884923, -4.281484, 4.921351, 5.170956, -3.485595, -5.020956, 4.358154, -4.688223, 14.732170, 7.195482, -3.660308, -2.850235, -3.962135, 6.270948, 18.811090, 6.376936, -5.297333, -4.070313, -4.645795, -3.476952],
    [-4.819623, -4.641849, 4.035568, 5.929351, -2.921493, -5.661524, 3.760447, -4.180985, 19.130203, 7.753622, -2.795211, -9.697784, -3.109790, 7.184909, 14.799278, 8.422618, -6.171604, -3.287980, -4.698455, -3.139152],
    [-4.317431, -4.197643, 3.943664, 5.011792, -3.463326, -4.962942, 4.012953, -4.006061, 24.263683, 7.667109, -3.496955, -16.524483, -3.537452, 6.270136, 13.420622, 6.600280, -5.402097, -3.350169, -4.345581, -2.849017],
    [-4.391425, -3.820639, 4.201353, 4.750543, -3.590333, -4.553710, 3.704175, -4.157730, 28.734180, 7.251921, -2.816159, -23.477520, -3.550966, 5.771073, 10.260166, 6.035161, -5.126938, -3.476460, -4.270327, -2.826985],
    [-3.562204, -3.201761, 2.930261, 3.912534, -2.512078, -4.032899, 2.983552, -3.204666, 39.605663, 6.899897, -2.770200, -30.687029, -2.745820, 5.492360, 8.758332, 5.757503, -4.399568, -2.678673, -3.742108, -2.572306],
    [-3.160015, -2.733475, 2.438685, 3.987681, -1.342945, -3.970760, 2.008913, -2.499641, 48.538692, 7.624759, -1.249959, -38.117928, -1.554274, 5.423866, 5.063597, 7.013706, -4.308029, -1.739354, -3.207172, -1.418031],
    [-2.124437, -1.952046, 1.911904, 2.717898, -0.781433, -2.585294, 1.276642, -1.799305, 62.215195, 6.457317, -0.576623, -46.154758, -0.800571, 4.168761, 4.159873, 5.005237, -3.219708, -0.899103, -2.040639, -0.815772],
    [-1.271618, -1.114955, 0.116086, 1.454850, -0.127752, -1.451422, 0.675575, -0.796460, 76.084702, 5.440104, -0.092530, -55.009907, -0.215945, 2.911872, 2.523596, 3.320302, -1.575069, -0.371878, -1.066644, 0.187303],
    [-0.018804, -0.325597, -0.337212, 0.962421, 1.021257, -0.757781, -0.958377, 0.193526, 86.138390, 5.447317, 1.861938, -64.383591, 1.027463, 2.753734, 0.479323, 4.150718, -1.116155, 0.636164, -0.171349, 1.159307],
    [0.655426, 0.747413, -2.358720, -0.519176, 2.024385, 0.181266, -1.790645, 1.267095, 101.388046, 2.079133, 2.349703, -77.100311, 1.811291, 0.373992, -0.674534, 1.198940, 0.428669, 1.675466, 1.505355, 1.851294],
    [1.991758, 1.890510, -3.158648, -1.771495, 2.964727, 1.722878, -2.610757, 1.949623, 107.396133, 2.890684, 3.034837, -89.774574, 2.718789, -0.359472, -0.717903, 0.427963, 1.230694, 2.755712, 1.787403, 3.266840],
    [2.429888, 2.566343, -3.376871, -1.273886, 4.466218, 1.805201, -3.502807, 3.036477, 106.416374, 3.460365, 4.590913, -101.416946, 4.119222, 0.544243, -1.262084, 2.281558, 0.996663, 3.603000, 2.697218, 4.496455],
    [2.828522, 2.617360, -3.948218, -2.158999, 3.433361, 2.352559, -3.078688, 2.820502, 100.368248, 2.762001, 3.888878, -110.863487, 3.648274, -0.825793, -1.019534, -0.067460, 1.995453, 3.299223, 2.556244, 4.104126],
    [2.279841, 2.336550, -3.573286, -1.622606, 4.093721, 1.694133, -3.536185, 2.869726, 89.330650, 3.518421, 4.504297, -114.721573, 3.465831, 0.138351, -0.738598, 2.364597, 1.031739, 3.194367, 2.552006, 3.790891],
    [1.391608, 1.860532, -2.790148, -0.928772, 3.204040, 1.174253, -2.483680, 2.089276, 75.841164, 5.282561, 3.797966, -111.591385, 2.923209, 1.348677, 0.528705, 3.360049, 0.534382, 2.740160, 1.871658, 3.145821],
    [0.046057, 0.118686, -1.840616, -0.131654, 1.442735, 0.041240, -1.324013, 0.345220, 62.033638, 4.156300, 1.699141, -100.905609, 1.047013, 0.965976, 1.233073, 1.991598, -0.000900, 1.296624, 0.208207, 1.386098],
    [-1.309295, -0.970246, -0.208411, 1.687570, 0.314058, -1.848749, -0.035017, -0.280912, 48.382771, 8.434484, 0.888692, -79.815285, 0.195124, 3.902527, 3.073277, 5.828244, -2.103444, -0.110436, -0.866701, 0.350057],
    [-2.630230, -2.268028, 0.157721, 2.169537, -1.075051, -2.467782, 1.125358, -2.100015, 38.284843, 9.259437, -0.528359, -67.473778, -1.304260, 3.657072, 4.067343, 5.712099, -2.537025, -1.371997, -1.293049, -1.062464],
    [-2.892585, -2.902925, 1.862432, 3.603617, -1.713109, -3.105364, 2.383536, -2.535992, 28.426004, 12.035943, -1.451336, -52.385765, -2.148174, 5.240114, 4.557927, 7.364567, -4.059468, -2.277768, -3.008927, -2.058305],
    [-3.998777, -3.814212, 2.488154, 4.503274, -2.431402, -4.442189, 2.766551, -3.684128, 19.201996, 13.639245, -1.606587, -39.833813, -3.017266, 6.401396, 5.455832, 8.794862, -4.795722, -3.287205, -3.671722, -2.482813],
    [-4.435421, -4.329341, 3.008965, 4.473769, -3.381696, -4.811446, 3.893620, -4.261501, 10.331649, 14.998787, -3.313170, -31.156202, -3.951859, 6.430147, 5.234744, 8.238802, -5.234034, -4.065826, -4.131772, -3.700926],
    [-4.421443, -4.462759, 3.016798, 4.894095, -3.364161, -5.268294, 3.688644, -4.202102, 1.531383, 17.342543, -2.889670, -24.728786, -3.489108, 7.750997, 6.634772, 10.192147, -5.971824, -3.778635, -4.534772, -3.681144],
    [-4.497733, -4.432199, 3.255688, 5.033897, -2.918023, -4.729993, 3.669972, -4.181945, -7.279869, 21.433718, -2.475177, -23.047228, -3.710117, 7.479254, 6.196008, 10.285709, -5.317369, -3.990439, -4.462595, -3.302164],
    [-4.417268, -4.444870, 2.855495, 4.928131, -3.082685, -5.324469, 3.605882, -3.990808, -16.151278, 22.800261, -2.816639, -18.969828, -3.671918, 7.833117, 6.427377, 10.394103, -6.066157, -3.468771, -4.303681, -3.260174],
    [-3.956234, -4.022770, 1.987944, 4.308350, -3.225368, -4.279811, 3.492607, -3.618955, -25.250433, 33.645821, -2.423315, -17.916311, -3.299474, 5.376343, 5.587583, 8.083755, -4.052160, -3.420911, -4.035975, -3.038771],
    [-3.258654, -3.550808, 1.515657, 3.669523, -1.997314, -3.485442, 2.298201, -2.796295, -34.504326, 42.013702, -1.438360, -15.086877, -2.579998, 6.158977, 5.932047, 9.271638, -4.286380, -2.524547, -3.105714, -2.167634],
    [-2.134079, -2.263604, -0.210240, 2.572013, -0.887367, -2.113324, 1.374141, -1.683990, -44.841980, 59.132259, -0.137500, -13.274291, -1.699958, 5.135704, 4.692599, 8.233942, -2.708101, -1.743138, -1.728639, -1.364220],
    [-1.140052, -0.904704, -1.581902, 1.015529, 0.112697, -1.139613, 0.041504, -0.959257, -56.046055, 74.884506, 0.612703, -12.328735, -0.360303, 3.140756, 2.165771, 6.624918, -1.343666, -0.364921, -0.794839, -0.052782],
    [0.400818, 0.458365, -3.013211, -0.558199, 1.261722, 0.563031, -1.305252, 0.501842, -70.642082, 95.193283, 2.334353, -9.777493, 1.051558, 0.949162, 0.739994, 4.419135, 0.267962, 0.849283, 0.764734, 1.390340],
    [2.178287, 2.096247, -3.987118, -1.446707, 3.119119, 1.553896, -2.607557, 2.690611, -86.245224, 104.950623, 3.792250, -8.329079, 2.826130, 1.215428, 1.594485, 4.727856, 0.664217, 2.850024, 2.059833, 3.032759],
    [2.151194, 2.458065, -5.178434, -2.444708, 3.245766, 2.502783, -3.133842, 2.501891, -101.164299, 104.897812, 3.817891, -7.179273, 2.621983, -0.512726, -0.553294, 3.166106, 2.296432, 3.037981, 2.741993, 3.411984],
    [2.464593, 2.715677, -4.309368, -2.111654, 4.059091, 2.192275, -3.832712, 3.163674, -111.813919, 96.275200, 4.430907, -7.036368, 3.721612, 0.746943, 0.205497, 4.314868, 1.006128, 3.598099, 3.128963, 3.885900],
    [1.504938, 1.496629, -4.642603, -1.732833, 2.798423, 1.628059, -2.727911, 2.157948, -113.607117, 81.475861, 3.488982, -6.832530, 2.128353, -0.387440, -0.657296, 4.084798, 1.597269, 2.384218, 2.316346, 2.586310],
    [0.845810, 0.372105, -3.133043, -0.401936, 2.201771, 1.054936, -1.881052, 1.362611, -104.341164, 64.654526, 3.063643, -8.663437, 1.145401, 1.608764, 1.606652, 7.178052, -0.004047, 1.314901, 1.214929, 1.686708],
    [-0.929747, -0.993140, -1.303826, 1.061384, -0.005912, -1.039923, 0.097459, -0.974092, -86.878365, 49.359825, 0.282367, -8.117994, -0.684920, 2.389164, 2.315537, 6.668457, -1.006106, -0.331111, -0.631285, -0.061550],
    [-2.456233, -2.552106, 0.348106, 2.433857, -1.379792, -2.290593, 2.080094, -2.269960, -65.928787, 36.238941, -0.810879, -9.261699, -2.208093, 4.124773, 4.734519, 9.087200, -2.271848, -2.040304, -2.152711, -1.279817],
    [-3.235016, -3.311401, 1.090919, 3.912858, -1.985211, -3.199674, 2.289899, -2.607008, -48.503685, 24.764547, -1.205608, -12.215191, -2.623238, 7.065670, 7.955846, 12.435155, -4.487981, -2.957739, -2.994458, -1.942492],
    [-4.540704, -4.138037, 2.277164, 4.919307, -2.807961, -4.606919, 2.964954, -3.896253, -34.435013, 14.041917, -2.336326, -12.720788, -3.408154, 8.363663, 7.831291, 13.518693, -5.811763, -3.540555, -4.057131, -3.334053],
    [-4.700196, -5.236642, 2.074845, 5.001197, -3.750965, -4.765506, 3.992491, -4.708255, -27.372627, 3.735688, -2.832121, -11.313332, -4.405233, 7.871243, 7.978541, 17.214142, -5.395828, -4.402925, -4.430192, -3.703776],
    [-4.832758, -4.931643, 2.608137, 5.024551, -3.639802, -4.871431, 4.079499, -4.211966, -21.818949, -6.521259, -3.026443, -12.473817, -4.336230, 8.658397, 8.820382, 20.388166, -5.837918, -4.136722, -4.163622, -3.664331],
    [-4.351200, -4.884466, 2.207574, 4.596488, -3.154654, -4.547276, 3.531071, -3.803591, -18.912003, -16.877193, -2.663574, -11.973798, -4.168577, 8.443341, 8.665005, 27.212362, -5.411039, -4.285597, -4.252191, -3.544331],
    [-3.500671, -3.834421, 1.627211, 3.934118, -2.818162, -3.675209, 2.774149, -3.282859, -15.885311, -27.500061, -1.926937, -10.717923, -3.503137, 7.622875, 7.778440, 39.799553, -4.859468, -3.545402, -3.415887, -2.907270],
    [-2.661596, -3.244736, 0.619898, 2.980620, -1.984050, -3.011938, 2.061758, -2.150060, -12.621801, -38.665672, -1.164500, -8.754154, -2.661130, 6.678081, 6.212120, 55.495682, -3.768981, -2.683252, -2.345438, -2.168876],
    [-1.606482, -2.069149, -0.771440, 1.735756, -0.013909, -1.444743, 0.246562, -0.792895, -8.102550, -51.314831, 0.751876, -7.726104, -1.045095, 5.702875, 5.187058, 77.702431, -2.567081, -1.275831, -0.816392, -0.399808],
    [0.294315, 0.239048, -2.331530, -0.039528, 1.413890, 0.055495, -1.168000, 1.059595, -8.145934, -65.761543, 1.964948, -5.374804, 1.019128, 5.511881, 3.783605, 97.615181, -0.939879, 0.863579, 0.706203, 1.157685],
    [1.801563, 1.418650, -4.411401, -1.278679, 3.242194, 1.908716, -2.905244, 2.518903, -7.267787, -83.562874, 3.737022, -3.873727, 2.232838, 3.526748, 1.137885, 113.697060, 0.251716, 2.050847, 2.267520, 2.684624],
    [2.611973, 2.474125, -5.969622, -2.297463, 3.677659, 2.633019, -3.419144, 2.783041, -5.468001, -100.443306, 4.684233, -2.549210, 3.182232, 3.464557, 0.823017, 115.258316, 1.625577, 2.944479, 3.116911, 3.415644],
    [1.973612, 1.796377, -5.095769, -2.235752, 3.083265, 2.381330, -3.206819, 2.411045, -2.670675, -112.045273, 3.697373, -0.807863, 2.525270, 1.673887, -1.300664, 105.384537, 2.189069, 2.511046, 3.010968, 2.841194],
    [1.917942, 1.903558, -4.614691, -1.531170, 3.027704, 1.393697, -2.593472, 2.417078, -4.193642, -112.700462, 3.756773, -2.638952, 2.504898, 5.041818, 1.557120, 88.255478, 0.313304, 2.217866, 2.369941, 2.780639],
    [0.515162, 0.236746, -3.643175, -0.447544, 1.744678, 0.865757, -1.501393, 1.086675, -6.539228, -100.265404, 2.360084, -4.278289, 0.336411, 7.271429, 2.295972, 69.543060, -0.990219, 0.745241, 0.834837, 1.161849],
    [-1.022776, -1.270766, -1.516634, 1.493353, 0.409067, -1.594709, -0.188588, -0.410114, -7.109471, -81.785255, 0.700249, -6.028566, -0.627451, 9.877007, 3.746490, 53.846680, -3.227372, -0.258321, -0.525481, -0.123829],
    [-2.607195, -2.770265, -0.012019, 2.759770, -1.534107, -2.928914, 1.518837, -2.190121, -8.083602, -61.217655, -0.994044, -6.011912, -1.974052, 13.541173, 4.813188, 40.414127, -4.654731, -2.269559, -1.998714, -1.525535],
    [-3.971321, -3.949031, 1.173893, 4.319688, -2.408345, -4.414249, 2.539882, -3.122419, -8.515288, -43.649250, -1.870093, -8.277647, -3.018130, 15.492441, 5.979285, 28.458111, -6.392015, -3.340766, -3.229934, -2.681651],
    [-4.922858, -5.019218, 2.191083, 5.604237, -3.347436, -5.601287, 3.728723, -3.922063, -8.226616, -30.193090, -3.042320, -9.055209, -4.165857, 16.761587, 6.357491, 17.283068, -7.582261, -3.874228, -4.349491, -3.919497],
    [-5.182161, -5.268215, 2.060297, 5.721745, -3.497848, -5.301829, 3.996476, -4.317982, -8.820003, -22.408951, -2.889615, -8.180663, -4.604650, 22.107958, 7.703878, 6.404403, -8.100623, -4.404866, -4.492261, -3.938909],
    [-5.031615, -5.377391, 2.322691, 5.482025, -3.525540, -5.617661, 3.863967, -4.393747, -8.417377, -18.630718, -2.858725, -8.126986, -4.705894, 26.453716, 7.414317, -4.373757, -8.540323, -4.440858, -4.284397, -3.914932],
    [-4.940485, -5.049605, 0.898888, 5.237193, -3.874701, -5.487687, 3.564753, -4.257116, -7.565150, -16.535227, -2.705459, -7.481106, -4.593365, 32.876904, 6.189799, -15.282653, -7.958144, -4.235348, -3.833376, -3.573207],
    [-4.582524, -4.050738, 1.355110, 4.615195, -2.470553, -4.698370, 2.499101, -3.150758, -6.241526, -12.760588, -1.823781, -6.954622, -3.573292, 46.815346, 5.286994, -26.540943, -8.107411, -3.597381, -2.738284, -2.665893],
    [-2.785282, -2.938828, -0.069922, 3.353566, -1.619542, -3.462875, 1.696815, -1.814114, -4.881519, -12.104771, -0.848009, -4.881649, -2.122293, 63.375923, 4.228625, -38.383827, -6.553787, -2.379417, -2.099936, -1.578791],
    [-1.855179, -1.276956, -1.496613, 2.461795, 0.670675, -2.340020, -0.386018, -0.118265, -3.430618, -10.188494, 0.591029, -4.510793, -0.620194, 84.106194, 1.974805, -51.815258, -5.944386, -0.336748, -0.280372, -0.060460],
    [0.173127, 0.040393, -3.246937, 0.190417, 1.993467, -0.481036, -1.761249, 1.281715, -1.093750, -7.144267, 2.295422, -2.004137, 1.023798, 106.292114, -0.177595, -68.643906, -3.431143, 0.994430, 1.107020, 1.370707],
    [1.380151, 1.524870, -4.771932, -0.912948, 3.364717, 1.061564, -3.129984, 2.647724, -0.113374, -6.921491, 3.734469, -0.356310, 2.001310, 115.228790, -1.329058, -86.577492, -3.163328, 2.495054, 2.725791, 2.659404],
    [2.500605, 1.976649, -5.432950, -1.689989, 2.672288, 1.844818, -2.970842, 2.244441, 1.518768, -5.251857, 3.624015, 1.823962, 2.264979, 111.053787, -2.030749, -101.891876, -1.277739, 2.372983, 2.724303, 2.478054],
    [1.595592, 1.592562, -4.491904, -0.883852, 3.171623, 0.643338, -2.668005, 2.702403, 0.994896, -5.693148, 3.441335, 0.764182, 2.617064, 96.929390, -1.326337, -109.072304, -2.777050, 2.695690, 2.420085, 2.809689],
    [0.213292, 0.492919, -3.667349, 0.254047, 1.991311, -0.392757, -1.952963, 1.428335, -0.899486, -7.048206, 2.652985, -0.786635, 0.976408, 77.468193, -0.699221, -101.615219, -5.386697, 1.254592, 1.795247, 2.134644],
    [-0.948357, -0.720191, -2.413320, 1.469201, 0.899308, -1.532514, -0.601419, 0.014592, -1.557560, -9.079643, 0.995429, -1.497395, -0.242213, 61.297459, 0.575867, -89.484398, -6.914491, 0.010590, -0.131306, 0.499307],
    [-2.768002, -2.890661, -0.664980, 3.278945, -1.062506, -3.819221, 1.361909, -1.510502, -3.365356, -9.466736, -0.642005, -3.011931, -2.256469, 46.150703, 2.145189, -66.456238, -9.109769, -1.883986, -1.655781, -1.318687],
    [-4.238318, -4.111928, 0.231228, 5.798337, -2.320365, -5.350330, 2.012219, -2.801868, -4.751521, -10.200933, -1.780710, -4.621617, -3.420423, 33.700333, 3.042044, -48.137680, -11.865622, -2.848999, -2.750214, -2.455926],
    [-4.962302, -4.761219, 1.351485, 5.503423, -3.407659, -6.849398, 3.923345, -4.050079, -5.227417, -11.245726, -3.142313, -4.558068, -4.177652, 22.166883, 4.844398, -33.110134, -14.926489, -4.084599, -3.748137, -3.819698],
    [-5.396798, -5.469356, 2.415043, 6.203372, -3.864126, -7.134590, 4.157804, -4.311660, -5.394687, -11.098844, -3.897762, -6.136463, -4.771308, 11.116688, 5.230510, -24.009621, -17.541956, -4.466049, -4.532616, -4.363325],
    [-6.422878, -5.702503, 2.740320, 6.918669, -4.499605, -8.509571, 4.226880, -4.769478, -5.678695, -10.221625, -3.912940, -6.180631, -5.224203, 0.193566, 5.033846, -17.371943, -19.156494, -5.094024, -4.812204, -4.561976],
    [-6.400790, -5.405876, 2.398723, 7.014161, -3.985598, -8.946911, 4.025055, -4.479197, -5.226436, -9.373322, -3.794954, -6.652195, -4.709103, -10.809865, 4.908039, -14.322824, -24.769051, -4.697550, -4.765969, -4.499078],
    [-5.241489, -4.956008, 1.886603, 5.963233, -3.460697, -7.945868, 3.680481, -3.848839, -4.459349, -9.036241, -3.518176, -4.473194, -4.275620, -21.976583, 3.956529, -13.471478, -35.968082, -4.096600, -3.881704, -3.715999],
    [-4.666289, -4.103400, 0.608111, 5.522792, -2.195761, -7.679140, 2.458401, -2.977560, -3.335090, -6.627697, -2.063290, -4.302553, -3.382020, -33.610043, 3.356627, -10.401772, -51.536102, -3.018597, -2.945416, -2.586006],
    [-3.369651, -2.725820, -0.904535, 3.542834, -1.170743, -5.918435, 1.228987, -1.611344, -1.408460, -4.748241, -0.924099, -1.989782, -2.038164, -46.431355, 2.121336, -8.539896, -73.285500, -1.616341, -1.466926, -1.083809],
    [-1.920467, -1.223239, -2.469800, 2.436153, 0.464599, -5.132260, -0.152873, -0.162391, -0.005796, -3.353551, 0.544195, -0.346080, -0.109950, -60.908241, 0.019817, -5.809009, -93.181320, 0.030573, 0.087890, 0.173587],
    [0.231586, 0.765275, -3.595749, 0.982845, 2.056653, -3.484215, -1.831220, 1.501486, 1.937834, -1.980997, 2.342344, 1.128705, 1.139910, -78.353607, -1.845967, -4.689912, -109.590134, 1.275070, 1.683329, 1.621000],
    [0.484968, 1.496952, -5.097514, 0.059325, 3.326854, -3.463755, -3.274898, 2.891823, 2.775054, -0.860888, 3.763830, 2.086597, 2.619411, -97.228096, -3.004250, -3.299222, -115.299065, 2.690569, 2.620934, 3.155586],
    [0.659130, 1.746075, -5.299528, -0.189018, 3.471652, -1.625417, -3.546090, 2.772681, 3.061736, 0.337609, 3.837195, 1.692913, 2.279675, -111.113487, -3.038519, -2.156986, -107.129318, 2.572169, 2.967798, 3.117687],
    [0.844023, 0.552514, -4.298149, 0.050858, 2.340624, -1.969746, -2.698395, 1.847761, 2.534474, -0.146847, 2.825346, 1.858071, 1.696474, -114.143646, -3.079014, -2.306159, -90.359566, 1.620483, 2.127505, 2.174268],
    [-0.923432, -0.296345, -3.665153, 1.858441, 1.504306, -5.329242, -1.397261, 1.000888, 1.309367, -2.583612, 2.110140, 0.792173, 0.709840, -103.888977, -1.290610, -5.149067, -71.372307, 1.130488, 0.992855, 1.512431],
    [-3.067091, -1.581859, -1.709317, 3.667137, -0.121748, -7.828460, 0.464976, -0.614592, -0.552994, -4.871378, -0.205641, -0.871324, -0.922233, -81.243263, 0.866708, -6.756279, -53.843914, -0.728285, -0.912037, -0.345959],
    [-4.774684, -3.352251, -0.314816, 5.891128, -1.702475, -10.274450, 1.955434, -2.540684, -2.176440, -6.213587, -1.637466, -2.830152, -2.460922, -58.867874, 2.774518, -7.572182, -39.533520, -2.294652, -2.267076, -2.121599],
    [-6.377901, -5.216619, 1.418755, 6.653980, -3.213085, -9.986163, 3.359198, -3.927946, -3.872020, -6.564401, -3.054254, -3.928957, -4.632637, -40.563602, 3.826931, -7.493310, -26.820021, -4.190084, -4.033365, -3.767805],
    [-7.449615, -6.252699, 1.935591, 8.330345, -3.774665, -13.195245, 3.820334, -4.783852, -4.544043, -7.480633, -3.757401, -4.456783, -5.015214, -27.719875, 4.353095, -8.883201, -14.909883, -4.875871, -4.354532, -4.347294],
    [-7.689812, -5.869876, 1.965927, 8.910695, -4.246282, -17.873125, 4.337670, -4.902499, -4.407656, -7.998870, -3.703028, -4.923983, -5.033910, -22.340397, 4.957428, -8.799289, -3.287326, -4.552999, -4.718421, -4.406198],
    [-8.128933, -6.156155, 1.870701, 9.396357, -4.173856, -22.617342, 4.193542, -4.719409, -4.500293, -7.756459, -3.781406, -4.734937, -4.818272, -17.937878, 4.683564, -8.605798, 8.338915, -4.534846, -4.526108, -3.954243],
    [-7.681683, -5.697176, 1.506922, 9.346032, -3.530216, -29.857891, 4.060321, -4.496875, -3.793725, -6.995056, -3.576895, -3.680220, -4.575184, -15.256702, 4.623101, -7.925316, 20.117386, -4.098723, -4.190042, -3.812196],
    [-7.096745, -5.072518, 0.497527, 8.062840, -2.704381, -44.032829, 3.303908, -3.588865, -2.994192, -6.028877, -2.642235, -2.651242, -3.530982, -12.049192, 3.401911, -6.553809, 32.318928, -3.712976, -3.392713, -2.983272],
    [-5.225039, -3.928965, -0.597512, 6.752476, -1.632343, -62.829262, 1.611529, -2.285622, -1.642383, -4.554698, -1.571076, -2.069081, -2.381125, -9.148568, 2.268831, -4.495427, 45.533783, -2.225466, -2.310548, -1.842946],
    [-4.044330, -1.814547, -2.480457, 6.598140, 0.348310, -84.988457, 0.133365, -0.344429, 0.413904, -2.813608, 0.505217, 0.578555, -0.475781, -8.070362, 0.412609, -3.611797, 60.967018, -0.355541, -0.312036, -0.062734],
    [-2.440872, -0.403953, -4.336836, 4.929374, 2.052847, -105.297844, -2.295333, 1.443787, 2.117862, -0.524515, 2.337079, 1.616878, 1.040417, -5.614664, -1.541588, -1.123191, 80.623543, 1.598151, 1.347986, 2.173910],
    [-1.513830, 0.877752, -5.729069, 3.965712, 3.437019, -109.760689, -3.136763, 2.658085, 3.238928, 0.252681, 3.304950, 2.800823, 2.383135, -4.255604, -2.706105, 0.062273, 100.751083, 2.493626, 2.696826, 3.253185],
    [-0.779434, 0.903433, -5.417378, 2.869308, 3.133544, -99.850647, -3.056539, 2.661478, 3.342489, 0.935505, 3.590070, 2.832133, 2.416435, -2.968974, -2.870380, 0.864045, 115.319763, 2.465706, 2.497272, 3.039670],
    [-2.620901, -0.489753, -4.820978, 4.000937, 2.567650, -80.608147, -2.527163, 1.931923, 2.462959, -0.117126, 2.641297, 2.693665, 1.638427, -5.006178, -2.311618, -0.428136, 115.721382, 1.929085, 1.740641, 2.733057],
    [-4.205157, -2.402364, -2.841455, 7.344595, 0.457754, -59.303589, -0.490503, -0.146210, 0.844694, -1.311113, 1.113744, 1.213969, -0.534621, -6.080766, -0.548888, -1.955881, 97.230331, 0.244679, 0.346431, 0.571609],
    [-5.820778, -3.878598, -0.402479, 8.607982, -1.355654, -41.698345, 1.522583, -1.961335, -1.121281, -3.291880, -1.284315, -2.255099, -2.008760, -7.447175, 1.871757, -4.500348, 71.202377, -2.048424, -1.919033, -1.612790],
    [-7.190047, -5.601411, 0.668177, 10.812910, -3.453779, -26.897085, 3.377468, -3.950214, -2.823109, -4.617070, -3.010879, -2.654860, -3.781037, -9.256554, 3.992429, -5.213217, 48.229103, -3.793167, -3.568063, -3.375526],
    [-9.460100, -6.520780, 1.898740, 13.692904, -4.161570, -13.619068, 4.383060, -4.727076, -3.655599, -6.083472, -3.776928, -3.544590, -4.588963, -9.467922, 4.665664, -6.936465, 33.982098, -4.387939, -4.527173, -3.952929],
    [-10.748184, -7.188836, 1.596141, 16.599165, -4.142198, -0.866534, 4.586660, -4.840147, -4.106343, -7.367589, -4.321046, -4.404918, -5.051857, -10.109791, 5.524696, -7.043712, 24.990059, -4.583419, -5.104765, -4.059369],
    [-10.843708, -7.666197, 1.709165, 22.131868, -4.227172, 11.898187, 4.204322, -5.516324, -4.248187, -6.321385, -4.232458, -3.925445, -5.357374, -10.014705, 4.680708, -6.559737, 19.512629, -4.804884, -5.352856, -4.438452],
    [-9.773271, -6.996899, 1.290386, 36.034771, -3.690328, 24.940512, 3.610454, -4.513690, -3.486083, -5.553624, -3.567494, -3.320916, -4.861111, -8.449446, 4.279040, -6.148173, 15.343434, -4.140600, -4.247092, -3.673032],
    [-8.623526, -6.040054, 0.296923, 54.848923, -2.744397, 38.890522, 2.619700, -3.693996, -2.151574, -3.882018, -2.576260, -1.582886, -3.629221, -6.201946, 3.220100, -4.471777, 12.576413, -2.997881, -3.206195, -2.513502],
    [-7.833508, -3.956174, -1.905317, 80.216064, -0.909348, 54.799011, 0.758391, -1.627797, -0.558630, -2.292381, -0.757388, -0.476711, -1.732063, -4.629199, 1.066740, -2.428393, 9.438731, -1.324892, -1.459517, -0.620736],
    [-6.916237, -1.820110, -3.660924, 104.926666, 1.000929, 74.014137, -1.197016, 0.124249, 1.599529, -0.103964, 1.104331, 1.984302, 0.319443, -2.483859, -1.312273, 0.255293, 7.219397, 0.762929, 0.576785, 1.364338],
    [-6.024487, -0.448901, -5.788261, 121.002975, 3.150854, 97.897774, -2.858836, 2.192828, 3.295671, 1.707178, 3.196387, 3.593086, 2.273523, -0.175703, -2.864858, 0.806788, 4.052795, 2.788189, 2.356079, 3.342707],
    [-5.174292, 0.174993, -6.184031, 114.739876, 3.614467, 116.957207, -3.411392, 2.794770, 4.151788, 2.244496, 3.684924, 3.979314, 2.777552, 0.053494, -3.325017, 1.823224, 2.867822, 3.205511, 3.035564, 3.752614],
    [-7.983291, -0.981157, -5.611872, 93.758217, 3.233969, 119.897186, -3.009965, 2.110079, 3.345914, 1.165051, 3.072903, 2.951178, 2.315035, -0.101092, -2.440632, 0.991726, 4.135278, 2.706405, 2.105029, 2.999997],
    [-8.687348, -2.818470, -3.421812, 69.815521, 0.878582, 101.967354, -0.458577, -0.091231, 1.358130, -0.308992, 0.944442, 0.658948, 0.049217, -2.145799, -0.371552, -0.678817, 5.115216, 0.540944, 0.100720, 0.999083],
    [-13.786785, -5.475986, -1.662316, 50.373566, -0.938900, 75.303070, 1.314424, -2.306417, -0.505729, -2.210026, -1.184428, -0.312419, -1.958943, -3.950353, 1.566203, -2.245910, 6.957702, -1.614877, -2.051907, -1.187341],
    [-16.190836, -6.443413, 0.128339, 34.659599, -3.193617, 52.830898, 3.265917, -3.983169, -2.480072, -3.801855, -2.893568, -2.141290, -3.762716, -5.103306, 3.245551, -3.482804, 7.973384, -3.073832, -3.522340, -2.935467],
    [-19.548702, -8.349523, 1.359832, 20.487354, -4.177125, 35.235226, 3.845792, -5.210883, -3.255328, -4.963290, -3.936351, -2.892015, -4.801041, -6.776812, 4.300652, -4.422685, 8.939385, -4.526276, -4.808370, -4.007083],
    [-22.977152, -9.421859, 1.638531, 7.109824, -4.707236, 24.250479, 4.708729, -5.889018, -4.184475, -5.745870, -4.411587, -3.431101, -5.556830, -6.811321, 4.660161, -5.330185, 9.102358, -5.014398, -5.798892, -4.353601],
    [-29.622248, -9.448968, 1.641114, -6.139514, -3.989813, 20.017832, 4.723296, -5.409158, -3.881920, -5.426529, -4.198506, -3.712635, -5.132777, -6.618425, 4.712759, -5.951116, 8.840297, -4.695556, -5.639472, -4.262932],
    [-40.880974, -8.871418, 1.188811, -19.756227, -3.581343, 15.799989, 4.109113, -4.910243, -3.528100, -5.056984, -3.471129, -3.298420, -4.836485, -5.941775, 3.819471, -5.371558, 7.693444, -4.362387, -4.868135, -3.427723],
    [-59.448372, -7.343297, -0.057226, -34.326557, -2.945945, 14.673967, 2.833997, -3.774010, -1.741629, -3.444185, -2.402844, -1.270622, -3.704578, -4.436474, 2.121219, -3.093496, 5.775088, -3.181347, -3.572776, -2.711339],
    [-87.259827, -6.351275, -2.146949, -51.423180, -0.736069, 9.973426, 0.681962, -1.697521, -0.213019, -1.734546, -0.593888, 0.287863, -1.612174, -2.353466, 0.701481, -1.490442, 3.781269, -1.251703, -1.910963, -0.731852],
    [-107.130272, -4.455791, -4.079651, -71.113815, 0.832418, 7.652501, -0.773654, 0.066700, 1.338085, 0.113212, 0.831291, 2.645663, 0.079071, -0.765025, -1.097330, -0.197451, 1.723229, 0.569071, 0.375887, 1.299704],
    [-121.994789, -2.943914, -5.826289, -96.796379, 3.034582, 5.823024, -2.690316, 1.507259, 3.754629, 2.269684, 3.058411, 4.006682, 1.738269, 1.206673, -2.608364, 2.760826, -0.320670, 2.597913, 2.060285, 2.716788],
    [-113.078651, -2.511157, -6.429341, -115.474815, 3.071765, 5.703817, -3.421115, 2.140377, 4.000242, 2.695316, 3.212928, 4.276501, 2.315219, 2.000876, -3.339595, 3.067701, -0.993607, 3.068558, 2.892579, 3.454997],
    [-90.235237, -4.160553, -5.210214, -114.656769, 2.131979, 5.014492, -2.145380, 1.014088, 2.600633, 1.643175, 2.345821, 3.468250, 0.821460, 0.670556, -2.436927, 1.454213, 0.619609, 1.667392, 1.185345, 2.610424],
    [-65.411125, -7.604050, -3.133582, -89.612480, 0.054091, 7.471976, 0.272194, -1.417470, 0.493806, -0.940561, -0.060136, 1.305471, -1.024772, -1.438645, 0.104702, -0.702992, 2.607132, -0.629440, -1.185621, 0.229536],
    [-46.779400, -9.743689, -0.837497, -63.907318, -2.162369, 7.849509, 2.523598, -3.747661, -1.562653, -3.017587, -2.132301, -0.353959, -3.238144, -3.540540, 2.333921, -2.706611, 4.361479, -2.647101, -3.756484, -1.653172],
    [-30.733561, -14.493844, 0.937126, -40.289719, -3.632890, 9.884353, 3.877014, -5.536006, -2.751845, -3.849807, -3.323070, -2.608996, -4.539078, -4.659611, 3.365330, -4.425276, 5.928588, -3.974830, -6.072648, -3.451005],
    [-16.265903, -16.332226, 2.453516, -24.225962, -4.594041, 9.319391, 5.248295, -6.633867, -3.975020, -5.403471, -4.726118, -3.661174, -6.063646, -5.652734, 4.624978, -5.419826, 6.683782, -5.560654, -6.670244, -4.485485],
    [-2.461665, -21.177013, 2.550509, -17.254353, -4.627214, 9.991250, 5.041446, -7.652347, -3.998478, -5.144551, -4.775973, -3.969097, -6.367625, -5.705893, 4.646213, -5.501009, 7.230968, -5.675534, -7.828630, -4.516220],
    [11.458703, -25.920515, 1.797635, -13.033638, -4.765794, 9.265821, 5.132753, -7.692824, -4.036308, -5.146712, -4.869349, -3.239970, -6.662547, -6.052752, 4.448022, -4.996206, 6.924306, -5.712606, -7.798973, -4.711976],
    [25.876774, -36.268864, 1.717709, -10.214900, -4.384404, 8.133604, 4.667117, -6.395277, -3.481681, -4.859880, -4.030564, -2.837567, -5.890736, -5.384625, 3.852635, -4.642365, 5.966120, -4.877185, -7.143006, -3.848541],
    [41.502781, -55.324787, 0.187176, -8.555831, -2.880799, 6.253913, 3.210980, -5.456382, -2.154294, -3.052087, -2.782985, -1.639892, -4.263557, -3.657133, 2.649205, -3.205884, 4.389911, -3.476269, -5.954058, -2.813916],
    [60.473309, -85.452301, -2.704702, -6.528300, -0.365272, 4.746584, 1.039452, -3.706382, 0.209195, -1.148490, -0.548085, 1.530603, -2.228321, -1.278672, 0.265776, -0.674307, 2.119023, -1.318906, -4.733926, -0.158048],
    [83.077744, -106.838692, -4.374732, -3.389486, 1.429064, 1.831931, -0.932411, -1.440943, 1.978155, 1.240893, 1.206234, 3.246728, -0.265641, 0.204436, -1.675915, 1.637750, -0.007078, 0.410580, -1.920358, 1.045342],
    [108.623894, -113.987198, -5.428357, -1.770547, 2.792014, -0.380151, -2.095191, 0.038161, 3.766776, 2.507299, 3.031835, 4.428700, 0.764877, 2.187277, -3.117941, 2.479630, -1.580010, 1.663774, -0.131409, 2.932657],
    [122.762939, -98.943611, -5.479229, -3.348111, 2.853400, 0.469097, -2.292324, -0.814741, 4.326303, 3.446606, 3.560887, 4.694170, 0.427212, 2.060825, -3.737713, 2.665000, -1.706816, 1.455819, -0.796120, 2.974092],
    [113.134781, -73.627762, -4.185541, -4.798553, 1.383290, 2.014570, -0.903311, -2.373106, 2.456608, 1.259211, 1.910475, 2.441089, -0.555488, 0.817896, -1.980267, 1.101339, 0.221847, 0.488277, -3.462334, 1.651709],
    [89.092888, -51.488926, -2.098800, -6.432685, -0.772833, 4.001915, 1.132501, -5.001828, 0.501757, -0.781469, -0.283420, 0.508086, -3.512958, -1.063562, 0.155421, -0.638743, 2.187469, -2.131855, -5.556188, -0.611632],
    [57.244301, -32.888302, -0.114547, -7.685493, -3.268419, 6.109463, 3.868039, -7.572122, -1.843905, -2.851380, -2.672518, -0.833333, -5.890011, -3.597516, 2.493953, -3.106097, 4.029955, -4.609666, -8.312349, -3.024361],
    [37.243484, -17.349009, 1.535023, -8.463721, -4.274499, 7.435701, 5.100776, -9.069897, -3.443594, -4.310894, -4.179705, -3.010387, -7.128001, -4.972685, 3.853636, -4.432521, 5.473413, -5.719973, -10.764127, -4.277988],
    [26.048870, -3.020757, 2.131997, -8.815440, -4.953987, 8.141232, 5.913610, -10.681065, -3.751691, -4.848808, -4.476893, -3.289936, -7.924174, -5.614840, 4.041864, -5.098678, 6.068491, -6.339948, -14.387108, -4.632951],
    [19.396744, 10.958771, 2.226313, -7.914818, -5.310116, 8.021689, 5.379030, -11.112425, -4.147386, -5.192266, -4.823163, -3.907992, -8.132758, -5.726882, 4.166439, -4.650073, 5.769642, -6.497190, -18.685329, -5.443487],
    [15.958944, 25.313402, 1.683758, -7.462876, -4.536353, 6.654407, 4.912041, -11.296233, -3.451424, -4.115237, -3.951057, -2.623007, -7.726389, -5.143335, 3.829830, -3.963481, 4.996000, -6.009998, -31.120068, -4.327181],
    [12.731304, 40.986832, -0.152625, -5.845526, -3.173425, 4.849661, 4.124466, -11.734006, -1.552588, -2.756613, -3.128347, -1.592393, -6.373774, -3.341570, 2.350855, -2.775831, 3.468693, -4.525275, -50.264847, -3.016522],
    [8.595757, 59.509823, -1.627787, -3.209237, -1.206764, 2.226764, 2.085956, -9.694130, -0.028666, -1.205458, -1.043418, 0.333296, -4.207448, -1.220022, 0.691114, -0.958175, 1.784342, -2.897905, -77.808113, -1.000003],
    [5.148219, 84.006676, -4.460500, -0.026837, 1.036611, 0.286682, -0.941665, -7.990374, 2.189867, 1.366678, 1.269968, 2.140673, -2.170084, 0.983155, -2.414536, 1.780987, -1.054839, -0.266358, -106.170471, 1.033806],
    [3.132366, 109.263161, -5.550857, 1.288965, 2.569092, -1.434564, -1.852203, -6.750204, 3.632926, 2.823740, 2.787398, 4.041945, -0.910823, 2.473002, -3.415982, 2.908357, -2.109717, 1.036190, -111.708389, 2.747936],
    [3.322723, 122.235420, -5.034535, 1.099353, 2.529133, -0.930766, -1.975325, -7.405922, 3.545661, 2.774966, 3.006007, 4.126802, -1.425365, 2.180813, -3.729926, 2.533233, -1.978983, 0.674905, -94.942940, 2.629454],
    [5.250086, 111.889420, -3.513684, -0.789013, 0.949516, 0.390529, -0.175735, -10.189310, 2.115544, 1.275750, 1.423269, 2.328724, -3.490411, 0.969491, -1.777237, 1.281758, -0.323331, -1.096896, -69.199287, 1.202297],
    [7.132826, 84.477036, -1.443765, -2.710401, -1.427627, 2.657063, 2.163983, -12.581012, -0.171036, -0.648292, -0.942851, 0.161562, -6.535463, -1.487411, 0.237985, -1.245713, 1.878312, -3.720028, -46.645298, -1.168102],
    [8.413966, 57.260674, 0.776163, -5.546567, -3.556947, 5.052618, 4.222287, -13.670182, -2.934244, -3.344543, -3.123525, -1.701355, -7.167554, -3.653805, 2.517667, -2.954893, 3.661379, -5.001984, -28.724585, -3.337030],
    [9.872139, 37.457596, 1.951844, -6.758716, -4.947515, 5.664823, 5.498567, -17.735996, -3.630341, -4.107329, -4.130640, -2.674130, -9.676090, -4.596045, 3.893881, -4.127448, 4.791681, -7.046881, -13.321730, -4.698923],
    [10.223970, 28.516397, 2.425997, -6.812569, -5.365158, 6.113147, 6.368899, -20.271069, -3.912574, -4.366354, -4.528296, -3.531019, -10.732849, -4.931397, 4.099693, -5.106864, 5.360201, -7.539635, 0.926146, -5.035779],
    [9.486779, 24.164156, 2.018314, -6.202470, -4.822535, 6.285996, 5.586555, -29.188185, -3.066562, -4.008986, -4.874554, -2.903190, -10.718561, -5.093598, 4.091862, -4.031950, 4.988537, -7.469990, 15.003849, -4.987144],
    [8.420803, 19.950918, 0.966099, -5.389719, -3.798829, 5.007963, 4.854266, -47.168171, -2.538196, -3.250052, -3.300736, -2.185024, -9.698959, -3.822822, 2.536675, -3.285697, 4.085299, -6.294534, 30.024109, -3.736078],
    [6.138772, 16.087109, -0.731218, -3.784781, -2.307000, 2.883723, 3.027668, -73.140854, -0.889552, -1.318524, -1.749461, -0.289430, -8.281588, -2.202821, 0.770403, -1.743765, 2.097877, -4.474041, 47.164440, -2.034348],
    [3.930274, 12.489986, -2.891233, -1.732889, -0.199567, 0.625200, 0.755187, -101.071144, 1.158916, 0.615023, 0.431571, 1.930225, -6.779111, 0.095468, -1.251747, 0.489401, -0.162705, -2.182661, 68.005585, 0.072360],
    [1.073048, 6.353813, -5.149243, 1.036377, 2.052890, -1.678862, -1.340819, -124.715279, 3.193178, 2.940889, 2.591457, 3.797295, -3.894250, 2.283289, -3.139053, 2.381798, -2.101254, -0.455138, 96.001472, 2.354458],
    [-0.557565, 6.325832, -6.427898, 1.736634, 2.466518, -1.869277, -2.163231, -117.629333, 4.087718, 3.045805, 2.866449, 7.175502, -3.981446, 2.385899, -3.547042, 3.507730, -2.283547, 0.334324, 117.027534, 2.498634],
    [1.585498, 6.890984, -4.599226, 0.677696, 1.538199, -0.711046, -1.027139, -93.628212, 3.386822, 2.620522, 2.525254, 3.668219, -5.534159, 1.631893, -3.273052, 2.540957, -2.094675, -1.130282, 118.063194, 1.657193],
    [3.125278, 7.652792, -2.319479, -1.292957, -0.550588, 0.788405, 1.746145, -68.354485, 0.823062, 0.299137, 0.021589, 1.105280, -8.044823, -0.036095, -0.496376, -0.053712, 0.564118, -3.326375, 96.596985, -0.550735],
    [5.174732, 8.703778, -0.359338, -2.885381, -2.894110, 3.391927, 3.163878, -48.975304, -1.335450, -1.816626, -2.204986, -1.022898, -10.625068, -2.797513, 1.035794, -1.938825, 2.190547, -5.094732, 70.383316, -2.911789],
    [7.163976, 10.693380, 1.335714, -4.933846, -4.734226, 4.603523, 5.498316, -32.772217, -3.251591, -3.404642, -3.865788, -2.037244, -14.008150, -3.950318, 2.798341, -3.588375, 3.873725, -7.565480, 45.556210, -4.489374],
    [7.724121, 11.220622, 2.366854, -5.941970, -5.705273, 5.646898, 6.534726, -18.315323, -3.785223, -4.262802, -4.551915, -3.545322, -18.054804, -5.085020, 3.943101, -4.299846, 4.721610, -8.740191, 29.182287, -5.461310],
    [7.819829, 11.500047, 2.750954, -6.513955, -6.135596, 6.263732, 7.568195, -4.580437, -4.182145, -4.640764, -5.044361, -3.767469, -21.993530, -5.570088, 4.338769, -4.882021, 5.322075, -9.938605, 18.426069, -5.838627],
    [7.390084, 9.993677, 2.844784, -5.734365, -5.790552, 5.436862, 7.052259, 9.130689, -4.356638, -4.466225, -5.032372, -4.171226, -30.188658, -4.958998, 4.220804, -4.831865, 5.397454, -9.448380, 13.593849, -5.495151],
    [7.094996, 9.005628, 1.643833, -4.525322, -4.860280, 5.529747, 5.712238, 23.696884, -2.256548, -3.065145, -3.743795, -2.886169, -47.907703, -4.294929, 2.038442, -3.308652, 4.097501, -8.648390, 10.647947, -4.840472],
    [4.546446, 7.620350, 0.001586, -3.023549, -3.249977, 2.471862, 4.760906, 40.067825, -1.217092, -1.537822, -1.932587, -0.863057, -72.862045, -2.066579, 1.200677, -2.208104, 2.122247, -7.534377, 7.254043, -2.638271],
    [1.867404, 4.800438, -2.611378, -0.717142, -0.975390, 0.266996, 2.843374, 59.863815, 0.884504, 0.661434, 0.066832, 1.608497, -101.816284, -0.154598, -1.513872, 0.479045, -0.232744, -5.601499, 6.550658, -0.594491],
    [0.143340, 2.423681, -4.641711, 1.504441, 1.083861, -0.781418, 0.346623, 83.906761, 4.376316, 2.956317, 2.297439, 3.695800, -121.573807, 1.774831, -3.938998, 2.584385, -2.182894, -3.836493, 5.117519, 0.961250],
    [-1.399070, 0.824448, -5.403562, 2.893204, 1.906317, -2.472005, 0.046553, 104.758522, 4.032114, 3.543600, 3.345995, 4.158525, -119.235672, 2.756343, -4.279999, 2.989379, -2.824204, -3.573795, 4.248525, 2.306380],
    [-0.153928, 2.379868, -5.051102, 1.982186, 1.139877, -2.001918, 0.108039, 111.564850, 3.453525, 3.184417, 2.550055, 4.264193, -100.239426, 2.651561, -3.663646, 2.984405, -2.839584, -4.093017, 5.308806, 1.658761],
    [1.343780, 3.527574, -2.926769, 0.252429, -0.522286, 0.045440, 1.418972, 97.993073, 1.651488, 1.677978, 0.641051, 1.957896, -76.424614, 0.199923, -2.130756, 1.309237, -0.616680, -5.285235, 6.088288, -0.393292],
    [2.614371, 4.419448, -1.324932, -1.877265, -2.870464, 1.558459, 3.782724, 75.075554, -0.471533, -0.942407, -1.679392, 0.157843, -57.161633, -1.510459, -0.120331, -1.039724, 1.142914, -7.279854, 8.034789, -2.725656],
    [3.751477, 5.886563, 0.060847, -3.445351, -4.567267, 2.872571, 6.210887, 53.815651, -2.242579, -2.115114, -2.862187, -1.676967, -41.767078, -2.667850, 1.507170, -2.593513, 2.708265, -10.640809, 10.165891, -3.829925],
    [5.479690, 6.979418, 1.925835, -4.452420, -6.307392, 4.500518, 7.578346, 35.087990, -3.490681, -3.618704, -4.384142, -3.570381, -28.076866, -4.281351, 2.857534, -3.789510, 4.319470, -12.134320, 9.248374, -5.450852],
    [5.481408, 6.817267, 2.669588, -4.840991, -6.540374, 4.920977, 8.473671, 25.288233, -4.515350, -4.272524, -4.957867, -4.466774, -15.227839, -4.625423, 4.119952, -4.683046, 4.637612, -15.737015, 10.211727, -5.617829],
    [5.693892, 7.312930, 2.923769, -5.106172, -6.913071, 4.872891, 9.511693, 20.356924, -4.663228, -4.546514, -5.052541, -4.566138, -2.677627, -4.803110, 4.414189, -4.815280, 4.824211, -18.554482, 9.714293, -5.831815],
    [6.387544, 8.088231, 3.151288, -5.058781, -7.289458, 5.192316, 9.456548, 15.604642, -3.946862, -4.122871, -5.212201, -3.908004, 9.781966, -4.701739, 3.387951, -4.553556, 4.877061, -22.561449, 8.649383, -7.004335],
    [5.638015, 7.820010, 3.027671, -5.197968, -6.264812, 4.757687, 9.714450, 12.104407, -2.909454, -3.212260, -4.519915, -2.934354, 22.476639, -4.555054, 2.960065, -3.980304, 4.060740, -33.489410, 7.234900, -6.084475],
    [4.279754, 5.639321, 1.255908, -3.272365, -5.464254, 3.468278, 8.902026, 9.976571, -1.467665, -1.977621, -3.304005, -2.332395, 35.895592, -3.606070, 1.311254, -2.604834, 2.580782, -51.721069, 6.676117, -5.004957],
    [2.697463, 4.575263, -0.473206, -1.818546, -4.190390, 1.799769, 8.725649, 7.721668, 0.082412, -0.451813, -1.957307, 0.257527, 50.590382, -1.414812, -0.388337, -0.983744, 0.970183, -73.693420, 4.466249, -3.852010],
    [0.305977, 2.124558, -1.951847, -0.067050, -2.358810, -0.477508, 6.925726, 4.440330, 1.568103, 1.231845, 0.382007, 2.625264, 68.558594, 0.761446, -2.028541, 0.626084, -0.507764, -98.171501, 2.199166, -2.842738],
    [-1.582114, -0.500874, -4.054233, 2.258838, -2.216009, -2.323059, 6.247698, 3.077806, 3.241170, 3.049341, 1.242755, 2.924945, 88.840843, 2.221750, -3.496561, 2.415951, -2.147511, -111.544060, 0.715198, -0.184202],
    [-1.704123, -0.251010, -4.577830, 2.723073, -0.083022, -2.434393, 4.401250, 1.289036, 4.350191, 4.090443, 2.467224, 3.966596, 108.582268, 2.716037, -4.762538, 3.240021, -3.184542, -111.299171, -0.844307, 0.085420],
    [-2.132421, -0.140948, -4.011323, 2.494216, -1.080678, -2.994407, 5.419077, 1.282840, 3.842828, 3.545861, 1.335891, 4.727663, 118.349579, 2.905961, -4.216295, 3.601147, -3.096058, -96.747604, -0.118930, -0.442629],
    [-0.582689, 0.964340, -3.135320, 1.560027, -1.940525, -1.451463, 6.816032, 3.094207, 2.753762, 2.427177, 0.953360, 3.129447, 113.114983, 1.568805, -3.339651, 1.789794, -1.896750, -76.559853, 0.224977, -1.468716],
    [0.911042, 1.613854, -1.290814, -0.513740, -4.139883, 0.467706, 7.434940, 3.705102, 0.589666, -0.065785, -1.545524, 0.238680, 91.456596, -0.513914, -1.113966, -0.472212, 0.320977, -56.780907, 2.350315, -2.680250],
    [3.027721, 4.585517, 1.035396, -2.229515, -6.123421, 1.806212, 10.135595, 6.706033, -1.083095, -0.947764, -2.609063, -0.962376, 69.039238, -1.755882, 0.302708, -1.723506, 1.733894, -41.139744, 3.789018, -5.251500],
    [3.949924, 4.300987, 1.947095, -3.654672, -8.491369, 3.874526, 11.272033, 6.295399, -3.054104, -3.463410, -4.705906, -3.298207, 46.385487, -3.552963, 2.284266, -3.839370, 3.858129, -27.210035, 5.217149, -6.291591],
    [4.731734, 5.416476, 2.880146, -4.309200, -10.064856, 4.322444, 13.410451, 7.156092, -3.588472, -3.703954, -5.219723, -3.160866, 34.443539, -4.640692, 3.045256, -4.406176, 4.625708, -14.598345, 6.648942, -8.476365],
    [5.500900, 6.789820, 3.611030, -5.072039, -10.249122, 5.076303, 16.289309, 8.338634, -3.863488, -3.712280, -6.306917, -3.473212, 25.536720, -4.759482, 2.902009, -4.431352, 4.678466, -2.277293, 7.095149, -9.267501],
    [5.250775, 5.869107, 3.217813, -4.549376, -11.532646, 4.899287, 21.054495, 7.281343, -3.461816, -4.121486, -6.117085, -3.286800, 22.314714, -4.532164, 2.946716, -4.811743, 4.759786, 9.917227, 6.783512, -9.366680],
    [4.808983, 5.718919, 3.466901, -4.184916, -10.292630, 4.345859, 33.310558, 6.511362, -3.041312, -3.552870, -5.637682, -3.138551, 17.361629, -4.184935, 2.216313, -4.457542, 4.188719, 22.256132, 5.743860, -8.251004],
    [3.391559, 4.183660, 2.126665, -3.443551, -10.434912, 3.116659, 48.633717, 4.734935, -2.717196, -2.558820, -4.189688, -2.230834, 13.646175, -3.402315, 2.323564, -3.162930, 3.436940, 35.037010, 4.528956, -7.676475],
    [2.326720, 3.284860, 0.819841, -1.368884, -9.744177, 2.098225, 68.508911, 3.793077, -0.691799, -0.943311, -2.787153, -1.072333, 11.336510, -1.948147, -0.033866, -1.510343, 1.857753, 48.950253, 3.418677, -6.455927],
    [0.492444, 1.682653, -0.388615, -0.107341, -8.966123, -0.142285, 92.797630, 2.400743, 1.319301, 1.291302, -1.456480, 1.171804, 8.786806, 0.180017, -1.837625, 0.284144, -0.430790, 65.138100, 1.242617, -5.224595],
    [-1.786941, -1.094753, -3.207734, 1.954940, -7.536921, -2.084781, 115.818359, -0.796237, 3.024395, 2.647896, 0.727105, 2.968691, 5.250009, 1.772423, -3.887868, 1.983472, -1.929276, 85.553139, -1.125543, -3.563715],
    [-3.074524, -2.215166, -4.457467, 3.576860, -7.241087, -3.478790, 123.147697, -2.155378, 4.731788, 3.936813, 1.421448, 3.849048, 3.698342, 3.568720, -5.244975, 3.160819, -3.354002, 106.922745, -2.634380, -1.767649],
    [-3.147545, -3.199056, -5.134421, 3.654900, -8.277000, -3.266861, 114.749413, -3.137104, 4.231348, 3.783427, 2.760964, 3.789242, 1.175533, 3.632794, -5.459731, 3.490876, -3.637591, 122.807213, -3.416114, -1.170181],
    [-2.420496, -2.026428, -3.651033, 2.902574, -7.014139, -2.989394, 95.988312, -1.712329, 3.999005, 3.401464, 1.609366, 4.588179, 2.873275, 2.719627, -4.709203, 2.678122, -2.670095, 125.125504, -1.994400, -3.444379],
    [-0.505684, 0.100554, -1.596995, 1.687831, -10.709814, -1.296502, 74.826469, 0.469986, 2.466213, 2.599959, 0.134235, 1.778255, 4.730667, 1.561911, -3.114335, 1.669373, -1.586791, 110.324181, -0.600441, -4.760141],
    [1.075706, 1.421806, 0.446537, -0.055696, -13.218950, 0.520323, 57.047596, 1.688921, 0.557004, 0.387828, -1.629419, 0.553212, 6.272514, -0.218442, -1.216796, -0.678393, 0.347137, 86.483139, 1.331852, -8.003524],
    [3.044833, 3.588173, 2.245370, -1.731337, -13.789524, 2.251030, 42.351524, 3.410866, -1.145027, -1.349869, -4.216223, -1.659454, 7.115549, -2.604187, 0.323997, -1.998577, 2.199040, 62.797176, 3.410119, -9.036527],
    [3.625383, 3.804205, 2.506935, -3.215259, -20.240023, 3.584292, 29.331841, 3.842827, -2.900883, -2.862303, -5.462739, -2.665566, 7.113208, -3.498091, 1.702016, -3.593174, 3.296480, 44.485744, 3.696145, -10.752571],
    [5.173825, 6.211977, 4.586914, -3.833505, -21.012190, 4.193112, 17.081488, 6.915123, -3.413081, -2.513028, -5.859760, -3.190509, 9.552435, -3.629385, 2.457731, -4.146678, 3.801292, 30.545216, 4.810977, -11.536676],
    [5.239902, 5.595268, 4.622814, -4.007490, -24.583483, 4.619809, 5.134200, 5.515962, -3.936009, -3.785195, -6.398898, -3.673452, 8.691648, -4.689381, 2.533746, -4.297009, 4.435437, 22.578110, 5.214042, -12.979830],
    [4.629519, 5.089934, 3.307151, -4.226971, -31.467840, 4.425576, -6.699114, 4.943414, -3.622597, -3.926204, -5.911288, -3.079173, 7.878622, -4.276475, 2.768669, -4.256386, 4.460029, 20.880831, 5.051878, -12.552768],
    [4.194432, 4.217773, 3.270039, -3.763520, -39.753052, 4.220092, -18.664570, 4.458932, -3.412556, -3.633941, -4.857583, -3.815094, 6.319566, -4.107763, 2.791840, -3.941706, 3.756146, 16.480215, 4.219063, -12.185573],
    [3.642275, 3.930521, 3.219908, -2.618973, -54.211121, 3.024670, -31.185646, 4.168765, -1.826123, -1.683671, -4.398304, -1.771162, 6.777715, -2.520349, 1.001235, -2.905568, 2.446074, 14.698765, 3.380816, -12.101542],
    [1.800865, 1.907899, 0.853638, -0.940379, -73.954254, 1.244846, -44.936749, 1.887233, -0.652441, -0.626003, -2.754061, -0.793294, 4.682778, -1.258438, -0.373653, -1.449659, 1.457935, 12.902586, 1.651293, -12.142080],
    [0.416019, 0.923458, 0.290139, 0.793912, -96.456314, -0.370936, -61.228554, 1.397734, 1.420665, 1.856355, -1.390059, 1.517229, 3.402673, 0.851067, -2.269747, 0.549070, -0.857299, 10.176539, 0.626622, -9.812568],
    [-1.521915, -1.661865, -2.720126, 2.176627, -118.008003, -1.668485, -82.263161, -2.076094, 2.499721, 2.294636, 0.775111, 2.319484, -0.397706, 1.828458, -4.005829, 2.069886, -1.936403, 5.227681, -2.059820, -7.038395],
    [-3.028190, -2.691838, -4.507274, 3.676048, -122.071503, -3.313268, -102.466766, -2.997500, 3.692104, 3.828619, 1.973344, 3.793417, -1.313952, 3.470073, -5.216962, 3.237292, -3.074159, 5.291909, -3.160308, -7.716280],
    [-3.281170, -3.146429, -4.679232, 3.901279, -112.351044, -3.266671, -116.364197, -3.136639, 3.833255, 3.956029, 1.255390, 3.727989, -1.431446, 3.876343, -5.375132, 3.315701, -3.444911, 4.818773, -3.312382, -6.935781],
    [-1.872285, -1.939944, -3.187259, 2.284868, -93.970779, -2.073994, -116.574524, -2.395078, 2.470650, 2.334707, 1.733704, 2.385847, -1.685803, 2.381650, -3.709314, 2.001901, -2.103814, 2.098216, -2.763058, -6.498697],
    [-0.417710, -0.416005, -1.653820, 0.981409, -73.614578, -0.779317, -99.302429, -0.595412, 1.444404, 1.399723, -1.048670, 0.940719, 1.065824, 1.196145, -2.626008, 0.966029, -0.942429, 6.222097, -0.694251, -9.919640],
    [0.959520, 1.478170, 0.886891, -0.252218, -57.842609, 0.489770, -79.363220, 1.892006, 0.179630, 0.974972, -2.702730, -0.277414, 4.354687, 0.005459, -1.358961, -0.552271, 0.266759, 8.633079, 1.138291, -12.785426],
    [2.527893, 2.586243, 1.771988, -2.090712, -44.120728, 2.164311, -55.908573, 2.590147, -1.753674, -1.686707, -4.951735, -1.810851, 4.784536, -1.918473, 0.817276, -2.295132, 2.263808, 9.401425, 2.533209, -15.598899],
    [3.403122, 3.762864, 2.709754, -3.239821, -32.169579, 3.326347, -39.097809, 4.063945, -2.977898, -2.895588, -6.181477, -2.565330, 5.848292, -3.143672, 1.653750, -3.175479, 3.485911, 10.570986, 3.620950, -18.903500],
    [4.887676, 4.831284, 4.481964, -4.203764, -20.886709, 4.392907, -25.542238, 4.879972, -4.453015, -4.221736, -6.263426, -4.258472, 5.808899, -4.416086, 3.430197, -4.588690, 4.158846, 8.268847, 4.340306, -19.410929],
    [4.718355, 5.105502, 4.476430, -4.461641, -9.908665, 4.504257, -19.527063, 4.812346, -4.385453, -4.238307, -7.271007, -4.450451, 6.457043, -4.283740, 3.403342, -4.754375, 4.610894, 9.076169, 4.708260, -23.185465],
    [4.463723, 4.801968, 4.358819, -4.230800, 1.001381, 4.287764, -18.145185, 4.854891, -4.101094, -3.668294, -7.547008, -3.485300, 6.437573, -3.855210, 2.492729, -3.930053, 4.596090, 10.508280, 4.757391, -28.416203],
    [4.184184, 4.172233, 3.780596, -3.524145, 11.990200, 3.512948, -16.358437, 4.342717, -3.482377, -3.032528, -6.939616, -2.987483, 5.852219, -3.587414, 1.841626, -3.484839, 3.910138, 9.542265, 4.292517, -38.209499],
    [3.318254, 3.448474, 2.843241, -3.223484, 23.159662, 3.230501, -12.644149, 3.642855, -3.143128, -2.217785, -7.047975, -2.350446, 4.904716, -2.767960, 2.045694, -2.946685, 3.003653, 7.896025, 3.343257, -49.185387],
    [2.074058, 2.391880, 2.557024, -1.654585, 35.379673, 1.874966, -9.812640, 2.088485, -1.825673, -1.131686, -5.105680, -1.691930, 3.312120, -1.713958, 0.625105, -1.897416, 1.941550, 5.206811, 1.936587, -68.647873],
    [0.544965, 0.601010, 0.010620, -0.278141, 49.164913, 0.095897, -7.880544, 0.468753, -0.173744, 0.334939, -5.078150, 0.336655, 1.708930, -0.206598, -1.085913, -0.244188, 0.187515, 3.896616, 0.162491, -90.817024],
    [-1.134961, -1.292230, -1.166164, 1.529155, 65.422234, -1.498399, -5.882254, -1.102131, 1.447309, 2.092580, -4.247022, 1.623952, -0.164065, 1.546858, -3.062215, 1.601844, -1.412066, 1.937958, -1.545491, -110.330086],
    [-2.586456, -2.444954, -2.325490, 2.575733, 82.609756, -2.806930, -4.211088, -2.234788, 2.719072, 3.255459, -3.506756, 3.206082, -1.361669, 2.750011, -3.671891, 2.699167, -2.656816, 0.872473, -2.456928, -119.204796],
    [-3.059269, -2.668394, -2.902185, 3.509984, 97.389297, -3.177212, -2.853036, -2.866904, 3.208478, 3.341607, -3.395905, 3.646187, -1.722082, 3.522426, -4.354957, 3.206206, -3.177932, -0.354433, -3.072793, -116.658974],
    [-2.571526, -2.481997, -2.436488, 3.027216, 105.586487, -2.646353, -2.358689, -2.744866, 2.769800, 3.288313, -2.319236, 3.093554, -2.083730, 3.282019, -4.260211, 2.793337, -3.065799, -0.761311, -3.212842, -105.143608],
    [-1.749780, -1.885725, -1.380429, 2.225179, 104.493660, -1.890597, -2.471215, -1.987652, 1.941058, 2.485361, -3.148936, 2.298561, -0.985284, 2.305578, -3.298501, 2.081162, -2.372139, -0.089869, -2.240175, -89.355545],
    [-0.851002, -0.814503, 0.426946, 1.563228, 95.058647, -1.010870, -3.975828, -0.783122, 1.295278, 1.778743, -5.896783, 1.173252, 0.586662, 1.650968, -2.296303, 1.151396, -1.539957, 1.472765, -1.188415, -73.804550],
    [0.729439, 0.835887, 1.741202, -0.437815, 79.668610, 0.586256, -4.493834, 0.589428, -0.118440, 0.388942, -6.771314, -0.055183, 1.547333, 0.438716, -1.280087, 0.303954, 0.566925, 2.391628, 0.751425, -60.025204],
    [1.766935, 2.043881, 3.927192, -1.081639, 61.243137, 1.522154, -5.686126, 1.922004, -1.606526, -0.771464, -9.832536, -1.431986, 3.118903, -1.262952, 0.462635, -1.363744, 1.510407, 3.670636, 1.440698, -48.154568],
    [2.778489, 3.002210, 5.558486, -2.052868, 47.497925, 2.564049, -6.344652, 2.776479, -2.332809, -1.459027, -12.453343, -2.479542, 3.992080, -1.833989, 1.676419, -2.444705, 2.112140, 4.711516, 2.454282, -37.912605],
    [3.511500, 3.902734, 6.071242, -3.024817, 32.415455, 3.391781, -7.174343, 3.802592, -3.458997, -2.694387, -15.382114, -3.323786, 5.163484, -3.029194, 2.153596, -3.242491, 3.383886, 5.839916, 3.788331, -28.138624],
    [4.318652, 4.369826, 7.722936, -3.666173, 22.837326, 4.033124, -7.677144, 4.459845, -4.196402, -3.139224, -17.110535, -3.585500, 5.808562, -3.328514, 2.776582, -3.662614, 3.856418, 6.492945, 4.210162, -18.853893],
    [4.276505, 4.470804, 8.058009, -3.874201, 19.095848, 4.112003, -7.640066, 4.633317, -4.264152, -3.371565, -19.503042, -3.947839, 5.860632, -3.568038, 3.098927, -3.945187, 3.891246, 7.078850, 4.299551, -9.768951],
    [4.221053, 4.721026, 7.472999, -3.967863, 16.466322, 4.210335, -7.704010, 4.825165, -4.587738, -3.198357, -21.954102, -3.767175, 5.897924, -3.555852, 3.116027, -4.125260, 4.089598, 6.847744, 4.597582, -0.749375],
    [4.599686, 4.709503, 8.042849, -4.066085, 12.716433, 4.320461, -6.740187, 4.773362, -4.394219, -3.715693, -23.188835, -4.273538, 5.699701, -3.969820, 3.641322, -4.231439, 4.126002, 5.923463, 4.728590, 8.194489],
    [3.793130, 3.924737, 7.859468, -3.602336, 13.032600, 3.786288, -6.012444, 4.248368, -3.997589, -3.244454, -32.664516, -3.372974, 5.035366, -3.021033, 2.448785, -3.370368, 3.360646, 5.910339, 3.986484, 17.244059],
    [3.599761, 3.505427, 7.513229, -3.179979, 10.874516, 3.272126, -5.697440, 3.654192, -3.242033, -2.233443, -41.374367, -2.498217, 4.411351, -2.253148, 1.534956, -2.586109, 3.147415, 5.342748, 3.799584, 26.358568],
    [2.168411, 2.525896, 8.310368, -1.559879, 9.562445, 2.048459, -4.437594, 2.888905, -2.295730, -0.884029, -53.928314, -1.954345, 3.766323, -1.257749, 1.372690, -2.132621, 2.120072, 4.484787, 2.272958, 35.819435],
    [1.254188, 1.123655, 7.309557, -0.199030, 8.189608, 0.687470, -3.271567, 1.404373, -1.017591, 0.088852, -71.735954, -0.444864, 2.739228, 0.105871, -0.040385, -0.640293, 0.510871, 3.617970, 1.184742, 46.390621],
    [0.316744, 0.557213, 6.100478, -0.046884, 5.165633, 0.002531, -1.330694, 0.203688, 0.460068, 1.194325, -88.695068, 0.657547, 1.016920, 1.093138, -1.865853, 0.922746, -0.903079, 1.679949, 0.293113, 58.045990],
    [-1.312856, -0.943512, 4.869248, 1.420638, 4.374582, -1.473361, -0.878226, -0.753198, 1.335048, 2.357627, -101.508606, 2.409175, 0.193947, 2.439962, -3.027625, 2.241616, -1.689098, 0.658050, -0.767226, 70.754196],
    [-2.280626, -2.221015, 3.108000, 2.637909, 2.904614, -2.731741, 0.891638, -2.319279, 2.245210, 3.253230, -111.220070, 2.874116, -1.380540, 3.136344, -3.606457, 2.680129, -2.547796, -1.065967, -2.430027, 85.431488],
    [-2.915943, -2.944873, 2.121903, 3.393701, 1.355289, -3.088601, 1.434522, -2.864365, 2.937652, 3.682817, -112.567802, 3.206732, -2.027070, 3.687617, -4.578627, 3.163480, -3.486623, -2.066900, -3.205991, 98.868996],
    [-3.322473, -3.035931, 1.707332, 3.885313, 2.965922, -3.898776, 1.033414, -2.906741, 3.095582, 4.841498, -107.156441, 4.286731, -1.821030, 4.515094, -4.682458, 3.864465, -3.873507, -0.639289, -2.822239, 109.343254],
    [-2.852275, -2.835414, 1.736657, 3.315245, 2.980295, -3.256688, 0.861207, -2.624503, 3.249047, 4.354004, -96.917267, 3.889599, -1.615609, 4.156183, -4.753219, 4.044172, -3.348900, -1.304791, -2.783195, 114.733559],
    [-2.529063, -2.318172, 2.706292, 3.247705, 3.587088, -2.764306, 0.673497, -2.239564, 2.378450, 3.447610, -84.176514, 2.716981, -1.087476, 3.349252, -3.685362, 2.865906, -2.919362, -0.949964, -2.464823, 113.737961],
    [-1.359568, -1.382749, 2.356187, 1.862192, 4.405337, -1.900341, -0.807796, -0.842979, 1.387208, 2.703481, -70.950844, 2.280971, -0.191141, 2.213157, -2.576428, 2.150675, -1.710971, 0.417496, -1.245856, 105.718369],
    [-0.417067, -0.002835, 2.945317, 0.937446, 6.162530, -0.809815, -2.031360, 0.393155, -0.072795, 1.534263, -58.897865, 1.291474, 1.166185, 1.126390, -1.782441, 1.020840, -0.574939, 2.176029, -0.116835, 92.842735],
    [1.055444, 0.869813, 4.062984, -0.508584, 7.806966, 0.384131, -3.531498, 1.550916, -1.294832, 0.234049, -48.109501, -0.341824, 2.623587, 0.197069, -0.377652, -0.064551, 0.341478, 3.152013, 1.236435, 76.056313],
    [2.057278, 2.038150, 5.736761, -1.441284, 7.461460, 1.856051, -4.096005, 2.231851, -2.092876, -0.954163, -39.122295, -1.339320, 3.160012, -0.921776, 0.904233, -1.450304, 1.225134, 3.515857, 2.073659, 63.398029],
    [2.901654, 3.194184, 6.964968, -2.460594, 9.204616, 2.742966, -5.270089, 3.730431, -3.310342, -1.673036, -30.515179, -2.017260, 4.469940, -1.731346, 1.105547, -2.278490, 2.424338, 5.382508, 3.313025, 48.493938],
    [3.428810, 3.326635, 8.470135, -3.048734, 9.646911, 3.245305, -5.711501, 4.298132, -3.984250, -2.806290, -22.583731, -2.989311, 5.079403, -2.552377, 2.858358, -2.680490, 3.222863, 5.501848, 3.722065, 38.769154],
    [3.805768, 4.049062, 10.402184, -3.439286, 9.924514, 3.696012, -6.030534, 4.460159, -4.192090, -2.368748, -14.995981, -3.289955, 5.586904, -3.069093, 2.447038, -3.215048, 3.363179, 5.984828, 4.268666, 34.448410],
    [4.551554, 4.651715, 11.481029, -4.176943, 9.660669, 3.938256, -6.648726, 5.041025, -4.466421, -3.095279, -7.457521, -3.786129, 5.845751, -3.181294, 3.217949, -3.495054, 4.026121, 6.402555, 5.324212, 26.416555],
    [4.374393, 4.417278, 13.762741, -3.794018, 9.791966, 3.923452, -6.814213, 4.888284, -4.886451, -3.075390, -0.049058, -3.812706, 5.840077, -3.066177, 3.535990, -3.816854, 3.929313, 6.760574, 4.819338, 25.069427],
    [4.704632, 4.808957, 15.118793, -4.826742, 9.002674, 4.561832, -6.413013, 5.409865, -4.745933, -3.679272, 7.297625, -4.246271, 6.238420, -3.411489, 3.744592, -3.520759, 4.026019, 6.763267, 5.609167, 18.939032],
    [4.586511, 4.725359, 18.191683, -4.310806, 9.292415, 4.146410, -6.425789, 5.107915, -5.048396, -2.969859, 14.598188, -3.660312, 5.941341, -3.232198, 3.110384, -3.438832, 4.141669, 6.619935, 5.226129, 19.260386],
    [4.358093, 4.357997, 21.677994, -3.629623, 9.918498, 3.906648, -6.936121, 4.905323, -4.680907, -2.851469, 21.889158, -3.497823, 5.625588, -2.935129, 3.137150, -3.486773, 3.679693, 6.515293, 4.941314, 17.210106],
    [4.011866, 3.873063, 30.715420, -3.506760, 7.720606, 3.495054, -5.512696, 4.466291, -4.134144, -2.908753, 29.444147, -3.642212, 5.071548, -2.851036, 2.791279, -3.216266, 3.434560, 5.623703, 4.048168, 14.126504],
    [3.243588, 3.593443, 40.358395, -3.053405, 7.489722, 2.753388, -5.391524, 4.093530, -3.415554, -1.695822, 37.116222, -2.471169, 4.509372, -1.655554, 2.109716, -2.055758, 2.174903, 5.065294, 3.839414, 14.028722],
    [2.450745, 2.667529, 53.265060, -2.386594, 5.602088, 2.137766, -3.841401, 3.334215, -2.577526, -1.507603, 45.438602, -1.600412, 3.591301, -1.654965, 1.987134, -1.660070, 2.024969, 3.796226, 3.162295, 9.776335],
    [1.355336, 1.557685, 67.565781, -0.788897, 5.617033, 0.835326, -3.541776, 2.273815, -1.849201, 0.311718, 54.335136, -0.429478, 3.059909, 0.157646, 0.272917, 0.032141, 0.497495, 3.401267, 2.262149, 11.091409],
    [0.611352, 0.421097, 82.232422, 0.297774, 3.916526, -0.039389, -1.960803, 1.144286, -0.777599, 0.833667, 64.382973, 0.306208, 1.825116, 0.632143, -1.053008, 0.533596, -0.126719, 2.043072, 0.912272, 8.630532],
    [-0.708346, -0.501171, 94.627037, 0.695088, 2.525038, -0.854522, -0.667124, 0.059634, 0.527421, 1.750886, 75.351700, 1.114567, 0.563779, 1.666971, -1.700578, 1.610920, -1.320458, 1.243634, 0.110074, 5.998229],
    [-1.206397, -1.252935, 103.190987, 1.396898, 1.253584, -1.579516, 0.192715, -0.834416, 1.403745, 2.695938, 86.875244, 2.053251, -0.486173, 2.575062, -2.370234, 2.388243, -2.270074, 0.176090, -0.936886, 4.313312],
    [-2.348665, -2.233692, 107.016083, 2.761154, 2.335712, -2.849639, 0.046910, -1.540742, 1.767546, 3.713454, 97.885185, 3.061208, -0.776653, 3.616873, -3.675897, 3.134364, -3.222924, -0.049807, -1.822486, 5.433277],
    [-3.095773, -2.702183, 106.707413, 3.585219, 2.321823, -3.288096, -0.089679, -2.011854, 2.185796, 4.385783, 107.863503, 3.697883, -0.989656, 4.445406, -3.615604, 3.929511, -3.664708, -0.584516, -2.175388, 4.950511],
    [-2.369280, -2.405012, 102.363693, 2.701019, -0.090498, -2.701890, 1.142990, -1.899791, 2.955980, 4.012816, 115.734138, 3.092709, -1.489328, 4.193838, -4.362119, 3.718214, -3.761950, -1.109337, -2.044836, 2.666510],
    [-2.965024, -2.792132, 95.183708, 3.673045, 1.581896, -3.514201, 0.366624, -1.640600, 2.116841, 4.653461, 120.936134, 3.589220, -1.199055, 5.096195, -3.675361, 4.411401, -3.746891, -0.407955, -1.702379, 4.984357],
    [-2.150576, -1.663083, 86.185600, 2.158494, 0.067254, -2.253051, 1.351231, -1.611439, 2.621133, 3.388794, 122.981689, 3.245656, -1.273476, 3.147499, -3.855198, 3.545456, -3.084023, -0.928155, -1.338671, 2.374153],
    [-2.317108, -2.072803, 76.211441, 2.629746, 2.158811, -2.636553, -0.247417, -1.202229, 1.408651, 3.768813, 121.711899, 2.939719, -0.680615, 3.151937, -2.593235, 2.851075, -2.828550, 0.077452, -1.213852, 4.743140],
    [-1.537199, -1.434225, 66.088005, 2.227330, 2.990736, -2.106197, -1.151945, -0.622249, 0.532546, 3.079213, 117.099709, 2.209695, 0.247074, 2.971886, -2.096027, 2.857116, -2.287402, 0.838151, -0.292295, 5.677047],
    [-0.310651, -0.207234, 56.214264, 0.536484, 2.492289, -0.700426, -1.108189, 0.284000, 0.374039, 1.577261, 109.180115, 1.303187, 0.872556, 1.635082, -1.627780, 1.212718, -1.139231, 0.883954, 0.412100, 4.374319],
    [0.749647, 0.975705, 47.078907, -0.602262, 3.437042, 0.576339, -1.654749, 1.315407, -0.297816, 0.822459, 98.981110, 0.487345, 1.788400, 0.845349, -0.742479, 0.571369, -0.834238, 1.813469, 1.376920, 5.143676],
    [1.326561, 1.436453, 38.789906, -1.447459, 4.231625, 0.977424, -2.705040, 2.122907, -1.463894, -0.277344, 87.781212, -0.465151, 2.527126, -0.040873, 0.533780, -0.293917, 0.730157, 2.617997, 2.098368, 5.740304],
    [2.065809, 2.445549, 31.029926, -1.793921, 5.894338, 1.554511, -4.238634, 3.216861, -2.713043, -0.545713, 75.141670, -1.357379, 3.716454, -0.488527, 1.258800, -0.835823, 0.768977, 4.191825, 3.517975, 8.502878],
    [3.087045, 2.992187, 24.109949, -3.063797, 6.060437, 2.723554, -4.492976, 3.759433, -2.973758, -1.901991, 65.678932, -1.801896, 3.897902, -1.821271, 2.137082, -2.111115, 2.156610, 4.631035, 3.735607, 7.609560],
    [3.789881, 3.599164, 17.396019, -3.630688, 6.805040, 3.222237, -5.438143, 4.570449, -3.787922, -2.315314, 56.155384, -3.235878, 4.794621, -2.392658, 2.974078, -2.472131, 2.679208, 5.342873, 4.355248, 8.351238],
    [4.005457, 4.343334, 10.972995, -4.131406, 8.086085, 3.862143, -6.320967, 5.217414, -4.496266, -2.759123, 47.839149, -3.754976, 5.397735, -2.304848, 3.395364, -2.908339, 2.917880, 6.295578, 5.252866, 9.615823],
    [4.619470, 4.874026, 4.785421, -4.931107, 8.039027, 4.437150, -6.480749, 5.755610, -4.906523, -3.625556, 41.374687, -3.909305, 5.601012, -3.282949, 4.215224, -3.666171, 3.735180, 6.164269, 5.717081, 9.306598],
    [4.999567, 5.215142, -1.277424, -4.980229, 8.513036, 4.819338, -7.051546, 6.148210, -5.267461, -3.927801, 35.787640, -4.986101, 6.063268, -3.791294, 4.962553, -3.751712, 4.139275, 6.712086, 5.946090, 9.552239],
    [5.386489, 5.458115, -7.219613, -4.907326, 9.813276, 4.979389, -7.759645, 6.670938, -6.307330, -3.654050, 30.596405, -4.499860, 6.854991, -3.030404, 5.015502, -3.524106, 4.498310, 7.499251, 6.970637, 11.597665],
    [6.469512, 6.047204, -13.042847, -6.347839, 8.744341, 6.155110, -7.452964, 6.758152, -5.821658, -4.818080, 25.684061, -5.294186, 6.588788, -4.573431, 4.811438, -4.567114, 4.483624, 7.250779, 7.421908, 10.214084],
    [5.579743, 5.887819, -18.753090, -5.496315, 9.389812, 5.314310, -7.987751, 6.473900, -6.189434, -4.543571, 26.515886, -5.429115, 7.049376, -4.346333, 5.644720, -4.522495, 4.582997, 7.772573, 6.927293, 11.038259],
    [5.974719, 5.984610, -24.368660, -5.888418, 9.698788, 5.816860, -8.089363, 6.745271, -6.345339, -4.823624, 23.454514, -5.749843, 7.249552, -4.417676, 5.945692, -4.652549, 4.893108, 7.666365, 6.967271, 10.708673],
    [6.239616, 6.092633, -29.896589, -6.426390, 9.493699, 6.295466, -8.108311, 6.990109, -6.287276, -5.006868, 21.626440, -5.479946, 7.231042, -4.483921, 5.989442, -4.707653, 5.041668, 7.449475, 7.248922, 10.625634],
    [6.233388, 6.337695, -35.318138, -6.324074, 9.613312, 6.267670, -8.354327, 7.139795, -6.367446, -4.734121, 20.357147, -5.980814, 7.288014, -4.386806, 5.713367, -4.723906, 5.052901, 7.958864, 7.289474, 10.825909],
    [6.273374, 6.285454, -40.625965, -5.910885, 9.743732, 5.964535, -8.597803, 6.927839, -6.205863, -4.927385, 20.084341, -6.014596, 7.335326, -4.564623, 6.322366, -4.718190, 5.036374, 7.902731, 7.069404, 10.566477],
    [6.276461, 6.324387, -45.853966, -6.441366, 9.919126, 6.114813, -8.099345, 7.244463, -6.498331, -4.926096, 18.520710, -5.617916, 7.009587, -4.804253, 6.080314, -4.948814, 4.986739, 7.630655, 7.367529, 10.459014],
    [6.888639, 6.876632, -50.992123, -6.801721, 9.265612, 6.071286, -7.810376, 7.326943, -6.397191, -5.006320, 17.229137, -5.492857, 7.252313, -4.640221, 5.551678, -4.564158, 4.732956, 7.571608, 7.936512, 10.792033],
    [6.193438, 6.463784, -56.041710, -6.487008, 9.775059, 5.897778, -8.100144, 7.009507, -6.281562, -5.004895, 17.591022, -5.211228, 6.915054, -4.436859, 5.952728, -4.885904, 5.039655, 7.484146, 7.401492, 10.751232],
    [6.623035, 6.451830, -61.033871, -6.654007, 9.082044, 6.330657, -7.673437, 7.086722, -6.463518, -5.169593, 16.015106, -5.530829, 6.877191, -4.814235, 5.451171, -4.594822, 4.678328, 7.200480, 7.794640, 10.696246],
    [6.104960, 6.351220, -65.941116, -5.958005, 9.378126, 5.812794, -8.202760, 7.025298, -6.143895, -4.679788, 16.581511, -5.214986, 7.065562, -4.455072, 5.500916, -4.726431, 4.394605, 7.426519, 7.247179, 10.622756],
    [5.654541, 5.733605, -70.817291, -5.920341, 9.420985, 5.656811, -8.166141, 6.813323, -6.043195, -4.427140, 16.287966, -5.581132, 6.912434, -4.264122, 5.883667, -4.561280, 4.660338, 7.571947, 6.795126, 10.464570],
    [5.458407, 5.636757, -75.640572, -5.042604, 9.814773, 5.091873, -7.878569, 6.589149, -6.197383, -4.069681, 17.679764, -5.168541, 6.979051, -3.721463, 5.584071, -4.315155, 4.289152, 7.732405, 6.747343, 10.778837],
    [5.836408, 5.849117, -80.442795, -5.830461, 9.107878, 5.792038, -7.388309, 6.712512, -5.912957, -4.551228, 15.220643, -4.981584, 6.339935, -4.210664, 5.127234, -4.207060, 4.049445, 7.264645, 7.298472, 9.979667],
    [5.357420, 5.028954, -85.204842, -4.980280, 9.530667, 4.842601, -7.780264, 6.544209, -6.014510, -3.717108, 16.772099, -4.533750, 6.767581, -3.314485, 5.316025, -4.092038, 3.947907, 7.321026, 6.700823, 10.395689],
    [5.757549, 5.484182, -89.975571, -5.994471, 8.230037, 5.577205, -7.168833, 6.366925, -5.721124, -4.267615, 14.157261, -4.749233, 6.031456, -3.885193, 4.528319, -4.035784, 4.046447, 6.547266, 7.064839, 9.813276],
    [5.242673, 5.477174, -94.727104, -5.442282, 8.566009, 5.187366, -7.249686, 6.167907, -5.219511, -3.779440, 14.255641, -5.521684, 6.364506, -3.486097, 4.718355, -3.571568, 3.565398, 6.885164, 6.236519, 9.442010],
    [5.459552, 5.375832, -99.499977, -5.951913, 8.137703, 5.619739, -6.648427, 6.053181, -5.208755, -3.724806, 13.079208, -5.344790, 5.673600, -3.453850, 4.106869, -3.659530, 3.554469, 6.460311, 6.566003, 9.122841],
    [4.917881, 5.143923, -104.276520, -5.104235, 8.274718, 4.928323, -6.793869, 5.797449, -4.982101, -3.471223, 13.481055, -5.068792, 5.778676, -3.111070, 4.433502, -3.329212, 3.428796, 6.223066, 6.071894, 9.043190],
    [4.791442, 5.022368, -109.095345, -5.143460, 8.053398, 4.522377, -6.544168, 5.394972, -4.831095, -3.236609, 13.672528, -4.544348, 5.749730, -3.155188, 3.988877, -3.189553, 3.117193, 6.337068, 5.984022, 8.866058],
    [5.814405, 5.583215, -113.938255, -5.810466, 7.079458, 4.679482, -5.971356, 5.704691, -4.380266, -3.524702, 11.367020, -4.499910, 5.274006, -2.873977, 3.127313, -3.224954, 2.983017, 5.535252, 6.240308, 8.001875],
    [5.901860, 5.169122, -118.829063, -6.035619, 6.460847, 4.706446, -5.750082, 5.372694, -3.987895, -3.235875, 10.705391, -4.775395, 5.267638, -2.998131, 2.785931, -2.810712, 2.774788, 5.415100, 6.032128, 7.458897],
    [5.025592, 4.618277, -123.787651, -4.944920, 7.036678, 4.742007, -5.739777, 5.082095, -3.854399, -2.567750, 11.500376, -3.962901, 5.009990, -2.588979, 2.896180, -2.643894, 2.626979, 5.366898, 5.426863, 7.954065],
    [4.377795, 4.206167, -128.784439, -4.515799, 6.931891, 4.081824, -5.846744, 4.838252, -3.916001, -2.400321, 11.761570, -4.017095, 4.623426, -2.394228, 2.654460, -2.309144, 2.333560, 5.199486, 5.222314, 8.231901],
    [5.268779, 4.289058, -133.899887, -5.478209, 5.741486, 5.182375, -4.826604, 4.515887, -3.246462, -2.483577, 9.733568, -4.036081, 4.538534, -2.486198, 2.100304, -2.236984, 2.187774, 4.587428, 5.132605, 6.947825],
    [4.698336, 4.466718, -139.087921, -4.817735, 5.721619, 3.368638, -4.815442, 4.722196, -3.306591, -2.272415, 10.090237, -3.252974, 4.331234, -1.826324, 2.034825, -2.195065, 2.083586, 4.593568, 4.870347, 7.214473],
    [4.341254, 4.159691, -144.352417, -4.590732, 5.932418, 3.378508, -4.660369, 4.168318, -2.585435, -1.684280, 9.892213, -3.450730, 4.126208, -1.554706, 1.454413, -1.985718, 1.735163, 4.757601, 4.525787, 6.716690],
    [4.513017, 3.840984, -149.796326, -4.652932, 5.206542, 3.121237, -4.555623, 3.967225, -2.655040, -1.576453, 9.179476, -2.957583, 3.975051, -1.579735, 1.471980, -1.596555, 1.497200, 3.953894, 4.442008, 6.179484],
    [3.985427, 3.436277, -155.334015, -4.300418, 4.996629, 3.014662, -3.950183, 3.922462, -2.319425, -1.457855, 9.173969, -2.761427, 3.886951, -1.195261, 1.089557, -1.199287, 0.978035, 3.927505, 4.380867, 5.938913],
    [3.590596, 3.446751, -161.029144, -3.500510, 4.940485, 2.173441, -4.128122, 3.808668, -2.134536, -0.684622, 9.424559, -2.253639, 3.312076, -0.972760, 0.692682, -0.825704, 0.598646, 4.028536, 3.997767, 6.118478],
    [3.030242, 3.372142, -166.978409, -3.649547, 4.400713, 2.064870, -3.410895, 3.692728, -1.765570, -1.110783, 8.408074, -2.000473, 3.310137, -0.524896, 0.579165, -0.703792, 0.706540, 3.304461, 3.817948, 5.406425],
    [2.957846, 2.924520, -173.014938, -3.046082, 4.357257, 1.557055, -3.621097, 3.216309, -1.137159, -0.260007, 8.414369, -1.627223, 3.179998, -0.553224, 0.177221, -0.475071, 0.396173, 3.216121, 3.338013, 5.178705],
    [2.472089, 2.547068, -179.104111, -2.410511, 4.404921, 1.375024, -3.240963, 2.540622, -0.971188, 0.063803, 8.650334, -1.188824, 2.929123, -0.023487, -0.183248, -0.196469, -0.104726, 3.038198, 3.026273, 5.238697],
    [2.636358, 2.171036, -185.229950, -2.627758, 3.582582, 0.856520, -2.839791, 2.595953, -0.593767, 0.306004, 7.612112, -1.975932, 2.539399, 0.299729, -0.479892, 0.357564, -0.306799, 2.786713, 2.809208, 4.268910],
    [2.352460, 2.033433, -191.320602, -2.335477, 3.537010, 0.780441, -2.465432, 2.263682, -0.268928, 0.586801, 7.360811, -0.755314, 2.027759, 0.364903, -0.781864, 0.364243, -0.593537, 2.550877, 2.350541, 4.315728],
    [2.106684, 1.994956, -197.050720, -2.181835, 2.929379, 0.514208, -2.398398, 1.752788, -0.043577, 0.747970, 6.923737, -0.814144, 2.010070, 1.014130, -0.889396, 0.828514, -0.973629, 1.954063, 2.344517, 3.833290],
    [1.869971, 1.540631, -202.197571, -1.809450, 2.850652, 0.326792, -2.160493, 1.420709, 0.590745, 1.423281, 6.583955, -1.670548, 1.785423, 1.297136, -1.426123, 1.060938, -1.128078, 1.973121, 1.665082, 3.311674],
    [2.169036, 1.338675, -207.046249, -1.929592, 2.406420, 0.623279, -1.590608, 1.213913, 0.583621, 1.637326, 5.919357, -0.802048, 1.517915, 1.457119, -1.625394, 1.277891, -1.505167, 1.335540, 1.575376, 2.975832],
    [2.662769, 1.272777, -210.851562, -2.007819, 1.880703, 0.073113, -1.494180, 1.302290, 0.551913, 1.737775, 5.350066, -0.542450, 1.039530, 1.887443, -2.065118, 1.652511, -1.720155, 1.063302, 1.721717, 2.748205],
    [2.661478, 1.025870, -214.289490, -1.735125, 1.567454, 0.267531, -1.035275, 0.838078, 0.929037, 2.037355, 4.830280, -0.976143, 1.061175, 1.825720, -2.119560, 1.756828, -1.912848, 0.978571, 1.313939, 2.242636],
    [2.722851, 0.943847, -216.790359, -1.889924, 1.260243, 0.403710, -0.866375, 0.742245, 1.094912, 1.949793, 4.322781, -0.558777, 0.798653, 2.054192, -2.217005, 1.886423, -1.734897, 0.801081, 1.071440, 2.128756],
    [1.807719, 1.306341, -217.674332, -1.357244, 1.420048, -0.826287, -0.983856, 1.128829, 1.188251, 2.182390, 4.032081, -0.532607, 1.100043, 1.716646, -2.305532, 1.755714, -1.957601, 1.275173, 1.246270, 1.839578],
    [2.186834, 2.205876, -202.680191, -2.554667, 2.019653, -0.086703, -1.655941, 2.170905, 0.421837, 1.031062, 3.707331, -1.195151, 1.897007, 1.351355, -1.246328, 0.959615, -1.048406, 1.628994, 1.985551, 2.262189],
]

# net.2.bias — shape (401,)
[-0.967844, -2.124211, -2.480476, -2.359138, -2.015397, -2.069781, -2.052631, -1.958528, -1.687980, -1.618912, -1.068114, -0.900877, -0.849217, -0.497259, -0.234293, -0.165497, 0.099028, 0.224115, 0.495619, 0.527379, 0.897743, 0.698676, 1.022292, 1.589708, 1.607812, 1.487579, 1.640349, 1.765918, 1.765225, 1.969723, 2.389487, 2.639345, 2.648231, 1.933022, 2.870258, 2.852041, 2.886874, 2.769971, 2.484689, 2.976244, 2.181920, 2.930588, 2.978107, 2.965530, 2.940260, 2.847898, 2.953960, 2.237542, 1.961260, 1.929112, 1.056409, 1.041136, 0.039845, -0.973254, -0.124912, -1.264576, -1.950787, -3.824373, -2.949198, -3.027388, -4.237911, -3.398312, -2.784964, -4.102186, -2.460508, -2.586284, -2.435166, -1.082501, -0.486873, 1.327734, 0.340821, 2.209080, 2.339029, 2.434736, 1.391412, 1.704849, 1.801397, 0.780117, -0.472242, -0.937067, -1.652220, -2.897962, -2.309151, -4.137720, -6.061961, -4.940588, -5.089752, -5.194991, -1.748975, -2.157136, 0.418099, 0.425966, 0.874426, 1.679413, 1.940035, 1.606299, 2.084874, 2.112783, 0.438680, -0.783538, -0.426786, -2.277033, -4.396680, -3.809172, -5.387852, -2.970165, -2.712375, -0.418135, 0.974171, 0.746517, 1.736395, 2.491948, 2.759476, 2.220611, 2.049893, 0.912352, -0.239816, -2.428644, -3.824345, -4.335433, -3.101191, -3.891014, -2.043881, -1.106852, 0.688998, 1.575209, 2.506725, 3.259045, 2.972915, 3.265630, 1.955312, 1.046936, -1.188396, -2.147789, -3.615173, -2.864369, -4.004035, -2.031534, -1.087771, 0.577518, 2.417816, 2.900515, 3.245663, 4.021698, 3.598977, 3.104444, 2.158731, 0.553996, -0.916843, -2.383526, -3.932860, -3.654838, -2.398853, -1.644611, -0.167820, 1.262841, 3.140297, 3.991147, 3.780467, 3.703192, 3.453074, 2.534974, 1.378916, -0.691392, -2.228366, -3.352190, -3.318395, -2.694674, -0.311247, 0.928243, 3.122035, 3.513689, 4.055449, 4.343638, 3.780405, 2.671861, 0.709774, -0.891577, -3.538315, -3.842494, -3.384325, -1.212012, 1.099706, 3.146174, 4.000518, 4.286250, 3.804659, 3.323762, 2.968542, 0.524830, -1.323442, -2.843728, -2.997828, -2.522221, -0.479185, 1.613573, 3.031895, 4.187779, 4.326499, 4.458419, 3.537654, 2.256486, 0.144932, -1.348445, -3.323274, -3.532938, -2.059312, 0.018179, 2.351617, 3.703302, 4.308271, 4.890663, 3.654664, 2.640123, 0.373637, -1.341329, -3.151318, -3.197973, -1.804779, 0.430178, 2.856435, 3.608529, 4.212880, 4.058354, 2.777723, 1.207752, -1.108004, -3.124714, -2.889263, -2.633140, -0.719712, 2.217199, 3.055320, 4.349857, 4.459174, 4.342882, 3.667039, 1.398600, -0.703870, -2.335355, -3.698449, -3.222085, -1.240705, 0.698946, 2.180854, 3.290123, 4.020469, 4.135291, 4.240358, 3.327221, 2.555021, 0.509144, -1.415123, -2.771466, -3.430238, -3.953746, -2.565807, 0.346462, 0.804311, 3.420956, 3.915695, 3.611159, 4.430240, 3.395818, 2.890291, 1.041219, -1.743697, -2.322876, -3.976224, -3.654230, -3.673298, -2.959371, -0.347338, 1.348056, 2.886710, 2.245405, 3.803816, 3.558074, 3.523398, 1.034406, 0.642428, -2.405362, -2.302891, -3.697902, -4.179286, -2.714913, -1.476298, -1.158571, 1.251781, 1.961341, 3.727452, 3.683657, 3.035169, 2.241671, 1.796430, 0.991560, -0.976944, -2.158340, -4.158108, -4.540089, -3.536721, -3.065538, -2.240940, -0.868373, 0.422358, 1.153499, 1.753784, 2.297190, 2.482237, 2.519988, 3.105833, 1.836395, 1.443117, 0.375365, -1.080108, -1.827448, -3.379573, -3.699206, -3.817230, -5.735807, -5.026874, -4.317303, -3.568480, -2.686671, -1.372189, 0.342504, 0.494420, 1.159825, 1.549805, 1.846613, 1.791882, 2.552559, 1.666112, 1.346207, 1.705976, 0.727534, 0.493235, -1.481273, -2.318263, -2.780681, -3.289311, -5.348785, -5.770219, -4.795382, -5.931540, -4.199441, -4.953030, -4.525541, -2.361825, -1.453677, -0.642893, -0.893420, 0.609009, 1.015625, 1.014636, 2.248097, 2.509664, 1.919136, 3.040295, 2.716563, 3.290710, 3.503132, 3.424584, 3.300649, 3.570911, 3.507099, 3.127308, 3.207223, 3.090774, 2.993320, 2.392929, 2.681912, 2.169219, 2.699433, 2.280744, 1.926738, 1.793958, 1.491514, 1.733166, 1.455379, 1.462023, 0.732407, 0.896583, 0.537425, 0.490281, 0.240514, 0.011051, -0.081871, -0.461923, -0.530167, -0.945848, -1.131568, -1.472554, -1.789323, -1.719901, -1.881209, -1.989851, -1.936518, -2.258002, -2.040359, -1.419972]

